{"learner":{"attributes":{"best_iteration":"99","best_ntree_limit":"100","scikit_learn":"{\"n_estimators\": 100, \"objective\": \"reg:squarederror\", \"max_depth\": null, \"max_leaves\": null, \"max_bin\": null, \"grow_policy\": null, \"learning_rate\": null, \"verbosity\": null, \"booster\": null, \"tree_method\": null, \"gamma\": null, \"min_child_weight\": null, \"max_delta_step\": null, \"subsample\": null, \"sampling_method\": null, \"colsample_bytree\": null, \"colsample_bylevel\": null, \"colsample_bynode\": null, \"reg_alpha\": null, \"reg_lambda\": null, \"scale_pos_weight\": null, \"base_score\": null, \"missing\": NaN, \"num_parallel_tree\": null, \"random_state\": 42, \"n_jobs\": null, \"monotone_constraints\": null, \"interaction_constraints\": null, \"importance_type\": null, \"gpu_id\": null, \"validate_parameters\": null, \"predictor\": null, \"enable_categorical\": false, \"feature_types\": null, \"max_cat_to_onehot\": null, \"max_cat_threshold\": null, \"eval_metric\": null, \"early_stopping_rounds\": null, \"callbacks\": null, \"_estimator_type\": \"regressor\"}"},"feature_names":["store_id","item_id","promotion","day_of_week","weather","item_name"],"feature_types":["int","int","int","int","int","int"],"gradient_booster":{"model":{"gbtree_model_param":{"num_parallel_tree":"1","num_trees":"100","size_leaf_vector":"0"},"tree_info":[0,0,0,0,0,0,0,0,0,0,0,0,0,0,0,0,0,0,0,0,0,0,0,0,0,0,0,0,0,0,0,0,0,0,0,0,0,0,0,0,0,0,0,0,0,0,0,0,0,0,0,0,0,0,0,0,0,0,0,0,0,0,0,0,0,0,0,0,0,0,0,0,0,0,0,0,0,0,0,0,0,0,0,0,0,0,0,0,0,0,0,0,0,0,0,0,0,0,0,0],"trees":[{"base_weights":[2.6E2,1.19375E2,3.6440216E2,5.7764706E1,1.65775E2,2.8452274E2,4.2012E2,2.83125E1,7.555E1,1.1333333E1,3.2083332E1],"categories":[],"categories_nodes":[],"categories_segments":[],"categories_sizes":[],"default_left":[1,1,1,1,0,0,0,1,0,0,0],"id":0,"left_children":[1,3,5,7,-1,-1,-1,9,-1,-1,-1],"loss_changes":[1.1457055E6,9.3337875E4,8.5199E4,6.7658633E3,0E0,0E0,0E0,1.4859375E2,0E0,0E0,0E0],"parents":[2147483647,0,0,1,1,2,2,3,3,7,7],"right_children":[2,4,6,8,-1,-1,-1,10,-1,-1,-1],"split_conditions":[4.65E1,2.05E1,6.85E1,8.5E0,4.9732502E1,8.535683E1,1.26036E2,2.5E0,2.2665E1,3.4E0,9.625E0],"split_indices":[1,1,1,1,0,0,0,1,0,0,0],"split_type":[0,0,0,0,0,0,0,0,0,0,0],"sum_hessian":[8E1,3.5E1,4.5E1,1.6E1,1.9E1,2.1E1,2.4E1,7E0,9E0,2E0,5E0],"tree_param":{"num_deleted":"0","num_feature":"6","num_nodes":"11","size_leaf_vector":"0"}},{"base_weights":[1.8566438E2,9.817932E1,2.7288208E2,5.464427E1,1.4800363E2,2.2187941E2,3.127908E2,2.45245E1,7.108117E1,1.051875E1,2.9024286E1],"categories":[],"categories_nodes":[],"categories_segments":[],"categories_sizes":[],"default_left":[1,1,1,1,0,0,0,1,0,0,0],"id":1,"left_children":[1,3,5,7,-1,-1,-1,9,-1,-1,-1],"loss_changes":[5.912585E5,8.301481E4,1.201625E4,1.0138578E4,0E0,0E0,0E0,3.249297E2,0E0,0E0,0E0],"parents":[2147483647,0,0,1,1,2,2,3,3,7,7],"right_children":[2,4,6,8,-1,-1,-1,10,-1,-1,-1],"split_conditions":[5.3E1,2.85E1,7.65E1,1.2E1,4.4401093E1,6.656383E1,9.383724E1,4E0,2.1324352E1,3.155625E0,8.707286E0],"split_indices":[1,1,1,1,0,0,0,1,0,0,0],"split_type":[0,0,0,0,0,0,0,0,0,0,0],"sum_hessian":[8E1,4.1E1,3.9E1,2.3E1,1.8E1,2E1,1.9E1,9E0,1.4E1,3E0,6E0],"tree_param":{"num_deleted":"0","num_feature":"6","num_nodes":"11","size_leaf_vector":"0"}},{"base_weights":[1.3290321E2,5.2473194E1,1.8172035E2,2.3969786E1,7.071396E1,1.3065662E2,2.0880275E2,9.755168E0,2.8680115E1],"categories":[],"categories_nodes":[],"categories_segments":[],"categories_sizes":[],"default_left":[1,1,1,1,0,0,0,0,0],"id":2,"left_children":[1,3,5,7,-1,-1,-1,-1,-1],"loss_changes":[3.0850012E5,1.494257E4,4.1864875E4,6.5759863E2,0E0,0E0,0E0,0E0,0E0],"parents":[2147483647,0,0,1,1,2,2,3,3],"right_children":[2,4,6,8,-1,-1,-1,-1,-1],"split_conditions":[4.05E1,1.65E1,6.25E1,5.5E0,2.1214188E1,3.9196987E1,6.2640827E1,2.9265504E0,8.604034E0],"split_indices":[1,1,1,1,0,0,0,0,0],"split_type":[0,0,0,0,0,0,0,0,0],"sum_hessian":[8E1,3.1E1,4.9E1,1.3E1,1.8E1,1.9E1,3E1,4E0,9E0],"tree_param":{"num_deleted":"0","num_feature":"6","num_nodes":"9","size_leaf_vector":"0"}},{"base_weights":[9.4693756E1,3.4327995E1,1.2769913E2,1.4801771E1,4.4853615E1,1.0447474E2,1.7342432E2,5.957118E0,1.7088087E1,3.037661E1,5.2620834E1],"categories":[],"categories_nodes":[],"categories_segments":[],"categories_sizes":[],"default_left":[1,1,1,1,1,0,0,0,0,0,0],"id":3,"left_children":[1,3,5,7,9,-1,-1,-1,-1,-1,-1],"loss_changes":[1.5700025E5,5.5018555E3,3.7102375E4,1.4086426E2,5.3803125E2,0E0,0E0,0E0,0E0,0E0,0E0],"parents":[2147483647,0,0,1,1,2,2,3,3,4,4],"right_children":[2,4,6,8,10,-1,-1,-1,-1,-1,-1],"split_conditions":[3.75E1,1.45E1,8.3E1,4E0,2.45E1,3.1342422E1,5.2027298E1,1.7871355E0,5.126426E0,9.112984E0,1.5786251E1],"split_indices":[1,1,1,1,1,0,0,0,0,0,0],"split_type":[0,0,0,0,0,0,0,0,0,0,0],"sum_hessian":[8E1,2.9E1,5.1E1,1.1E1,1.8E1,3.6E1,1.5E1,3E0,8E0,8E0,1E1],"tree_param":{"num_deleted":"0","num_feature":"6","num_nodes":"11","size_leaf_vector":"0"}},{"base_weights":[6.7707634E1,3.631031E1,1.0406362E2,1.9634832E1,5.443301E1,8.6234024E1,1.3034642E2,8.143423E0,2.456353E1,1.6153445E0,8.757515E0],"categories":[],"categories_nodes":[],"categories_segments":[],"categories_sizes":[],"default_left":[1,1,1,1,0,0,0,1,0,0,0],"id":4,"left_children":[1,3,5,7,-1,-1,-1,9,-1,-1,-1],"loss_changes":[8.8681375E4,1.2530426E4,6.0983125E3,1.2159111E3,0E0,0E0,0E0,2.1933105E1,0E0,0E0,0E0],"parents":[2147483647,0,0,1,1,2,2,3,3,7,7],"right_children":[2,4,6,8,-1,-1,-1,10,-1,-1,-1],"split_conditions":[5.65E1,3.05E1,8.65E1,1E1,1.6329905E1,2.5870209E1,3.9103928E1,1.5E0,7.369059E0,4.8460338E-1,2.6272545E0],"split_indices":[1,1,1,1,0,0,0,1,0,0,0],"split_type":[0,0,0,0,0,0,0,0,0,0,0],"sum_hessian":[8E1,4.4E1,3.6E1,2.4E1,2E1,2.4E1,1.2E1,8E0,1.6E1,1E0,7E0],"tree_param":{"num_deleted":"0","num_feature":"6","num_nodes":"11","size_leaf_vector":"0"}},{"base_weights":[4.8528484E1,2.6977127E1,7.608235E1,1.4466407E1,4.053629E1,6.404578E1,9.976921E1,6.8958855E0,1.8766989E1,3.8375723E0,8.804885E0],"categories":[],"categories_nodes":[],"categories_segments":[],"categories_sizes":[],"default_left":[1,1,1,1,0,0,0,1,0,0,0],"id":5,"left_children":[1,3,5,7,-1,-1,-1,9,-1,-1,-1],"loss_changes":[4.6047203E4,7.386426E3,3.589E3,7.170835E2,0E0,0E0,0E0,3.0432129E1,0E0,0E0,0E0],"parents":[2147483647,0,0,1,1,2,2,3,3,7,7],"right_children":[2,4,6,8,-1,-1,-1,10,-1,-1,-1],"split_conditions":[5.85E1,3.3E1,9E1,1.35E1,1.2160888E1,1.9213734E1,2.9930765E1,6.5E0,5.630097E0,1.1512717E0,2.6414657E0],"split_indices":[1,1,1,1,0,0,0,1,0,0,0],"split_type":[0,0,0,0,0,0,0,0,0,0,0],"sum_hessian":[8E1,4.6E1,3.4E1,2.5E1,2.1E1,2.5E1,9E0,1E1,1.5E1,5E0,5E0],"tree_param":{"num_deleted":"0","num_feature":"6","num_nodes":"11","size_leaf_vector":"0"}},{"base_weights":[3.4843124E1,1.8126463E1,5.3282337E1,8.362287E0,2.5914848E1,4.0273697E1,6.5498955E1,2.878179E0,9.896185E0,1.6711226E1,2.8054321E1,7.9740715E-1,3.134852E0],"categories":[],"categories_nodes":[],"categories_segments":[],"categories_sizes":[],"default_left":[1,1,1,1,1,0,0,1,0,0,0,0,0],"id":6,"left_children":[1,3,5,7,9,-1,-1,11,-1,-1,-1,-1,-1],"loss_changes":[2.400179E4,3.1293691E3,3.4011328E3,1.4817029E2,3.758789E0,0E0,0E0,7.047119E-1,0E0,0E0,0E0,0E0,0E0],"parents":[2147483647,0,0,1,1,2,2,3,3,4,4,7,7],"right_children":[2,4,6,8,10,-1,-1,12,-1,-1,-1,-1,-1],"split_conditions":[5.55E1,2.55E1,8E1,6.5E0,3.45E1,1.2082109E1,1.9649687E1,1.5E0,2.9688556E0,5.0133677E0,8.416297E0,2.3922215E-1,9.404556E-1],"split_indices":[1,1,1,1,1,0,0,1,0,0,0,0,0],"split_type":[0,0,0,0,0,0,0,0,0,0,0,0,0],"sum_hessian":[8E1,4.3E1,3.7E1,2E1,2.3E1,2E1,1.7E1,5E0,1.5E1,6E0,1.7E1,1E0,4E0],"tree_param":{"num_deleted":"0","num_feature":"6","num_nodes":"13","size_leaf_vector":"0"}},{"base_weights":[2.4998951E1,1.1775413E1,3.699758E1,6.051149E0,1.7197119E1,3.0697195E1,5.6688206E1,3.6548252E0,8.321623E0,2.1098621E1,1.3473339E1,4.188139E0,1.5411625E0,9.584954E0,4.030386E0,2.6767197E0,1.4149998E1,6.777959E-1,4.5422077E0,-1.4260178E0,6.3245263E0],"categories":[],"categories_nodes":[],"categories_segments":[],"categories_sizes":[],"default_left":[1,1,1,1,1,0,0,1,1,0,1,1,0,0,1,0,0,0,0,0,0],"id":7,"left_children":[1,3,5,7,9,-1,-1,11,13,-1,15,17,-1,-1,19,-1,-1,-1,-1,-1,-1],"loss_changes":[1.2416152E4,1.1373486E3,3.470293E3,8.384253E1,6.2978516E0,0E0,0E0,7.072357E0,1.5581543E1,0E0,5.7097412E1,8.107422E0,0E0,0E0,5.9089912E1,0E0,0E0,0E0,0E0,0E0,0E0],"parents":[2147483647,0,0,1,1,2,2,3,3,4,4,7,7,8,8,10,10,11,11,14,14],"right_children":[2,4,6,8,10,-1,-1,12,14,-1,16,18,-1,-1,20,-1,-1,-1,-1,-1,-1],"split_conditions":[5.05E1,2.55E1,9.15E1,1.45E1,5E-1,9.209159E0,1.7006462E1,1.5E0,1.5E0,6.3295865E0,5E-1,1.5E0,4.6234876E-1,2.8754864E0,2.5E0,8.0301595E-1,4.2449994E0,2.0333877E-1,1.3626623E0,-4.2780533E-1,1.897358E0],"split_indices":[1,1,1,1,4,0,0,4,4,0,5,1,0,0,3,0,0,0,0,0,0],"split_type":[0,0,0,0,0,0,0,0,0,0,0,0,0,0,0,0,0,0,0,0,0],"sum_hessian":[8E1,3.9E1,4.1E1,2E1,1.9E1,3.3E1,8E0,1.1E1,9E0,7E0,1.2E1,8E0,3E0,6E0,3E0,1E0,1.1E1,1E0,7E0,1E0,2E0],"tree_param":{"num_deleted":"0","num_feature":"6","num_nodes":"21","size_leaf_vector":"0"}},{"base_weights":[1.8042059E1,9.9758415E0,2.889901E1,4.7504745E0,1.3864073E1,2.3618223E1,4.310929E1,3.0161397E0,7.4085426E0,1.4242526E0,3.9191475E0,1.1279602E0,8.144631E0,2.339335E0,-5.7563525E-1,1.2524254E0,5.0437713E0,3.4866333E-1,-1.2121162E0,5.784529E0,6.6999054E-1],"categories":[],"categories_nodes":[],"categories_segments":[],"categories_sizes":[],"default_left":[1,1,1,1,0,0,0,1,1,1,1,0,0,0,1,0,1,0,0,0,0],"id":8,"left_children":[1,3,5,7,-1,-1,-1,9,11,13,15,-1,-1,-1,17,-1,19,-1,-1,-1,-1],"loss_changes":[6.805244E3,9.093755E2,1.5332441E3,7.907437E1,0E0,0E0,0E0,1.59804535E1,2.7797699E1,1.4157037E1,2.0674576E1,0E0,0E0,0E0,2.187516E0,0E0,1.5563889E1,0E0,0E0,0E0,0E0],"parents":[2147483647,0,0,1,1,2,2,3,3,7,7,8,8,9,9,10,10,14,14,16,16],"right_children":[2,4,6,8,-1,-1,-1,10,12,14,16,-1,-1,-1,18,-1,20,-1,-1,-1,-1],"split_conditions":[5.95E1,2.65E1,9.25E1,5.5E0,4.159222E0,7.0854673E0,1.2932788E1,2.5E0,7E0,1.5E0,8E0,3.383881E-1,2.4433894E0,7.018005E-1,1.5E1,3.7572765E-1,3E0,1.0459901E-1,-3.6363488E-1,1.7353588E0,2.0099717E-1],"split_indices":[1,1,1,5,0,0,0,3,1,4,1,0,0,0,1,0,5,0,0,0,0],"split_type":[0,0,0,0,0,0,0,0,0,0,0,0,0,0,0,0,0,0,0,0,0],"sum_hessian":[8E1,4.7E1,3.3E1,2.1E1,2.6E1,2.6E1,7E0,1.4E1,7E0,6E0,8E0,1E0,6E0,4E0,2E0,3E0,5E0,1E0,1E0,4E0,1E0],"tree_param":{"num_deleted":"0","num_feature":"6","num_nodes":"21","size_leaf_vector":"0"}},{"base_weights":[1.2996277E1,8.580045E0,2.4449806E1,4.052364E0,1.1923202E1,1.9483583E1,3.44458E1,2.2179854E0,5.857234E0,1.2807104E1,2.0921555E0,1.585979E0,3.1648026E0,2.7979076E0,7.4195747E0,1.0703196E1,1.6154993E1,-2.7718964E0,4.6374717E0,2.9636383E-1,1.685304E0,9.5876694E-1,3.4766197E0,-5.5646515E-1,4.61421E0,7.8548017E0,2.186493E0,1.3589213E1,8.0833845E0,3.8826275E-1,1.7862794E0,-1.0303001E0,1.9560242E-1,3.4033813E0,1.4437019E1,2.802348E0,8.730029E0],"categories":[],"categories_nodes":[],"categories_segments":[],"categories_sizes":[],"default_left":[1,1,1,1,1,0,0,1,1,1,1,1,1,1,1,1,0,0,0,0,1,0,0,1,0,0,0,1,1,0,0,0,0,0,0,0,0],"id":9,"left_children":[1,3,5,7,9,-1,-1,11,13,15,17,19,21,23,25,27,-1,-1,-1,-1,29,-1,-1,31,-1,-1,-1,33,35,-1,-1,-1,-1,-1,-1,-1,-1],"loss_changes":[3.8873174E3,8.598877E2,4.210039E2,7.640073E1,2.686543E2,0E0,0E0,3.9566116E0,4.1376984E1,4.5443848E1,6.237679E1,9.095421E-1,1.0612869E-1,3.912299E1,1.0461121E0,5.649121E1,0E0,0E0,0E0,0E0,6.161461E-1,0E0,0E0,1.2705972E0,0E0,0E0,0E0,2.8585693E1,2.3344727E1,0E0,0E0,0E0,0E0,0E0,0E0,0E0,0E0],"parents":[2147483647,0,0,1,1,2,2,3,3,4,4,7,7,8,8,9,9,10,10,11,11,12,12,13,13,14,14,15,15,20,20,23,23,27,27,28,28],"right_children":[2,4,6,8,10,-1,-1,12,14,16,18,20,22,24,26,28,-1,-1,-1,-1,30,-1,-1,32,-1,-1,-1,34,36,-1,-1,-1,-1,-1,-1,-1,-1],"split_conditions":[7.3E1,3.45E1,9.45E1,1.8E1,6.85E1,5.845075E0,1.033374E1,5.5E0,3.5E0,5.95E1,7E1,5E-1,7E0,3.5E0,3.1E1,5E-1,4.846498E0,-8.3156896E-1,1.3912416E0,8.890915E-2,1.5E0,2.8763008E-1,1.0429859E0,2.5E1,1.384263E0,2.3564405E0,6.559479E-1,1E0,5E-1,1.1647883E-1,5.3588384E-1,-3.0909005E-1,5.8680728E-2,1.0210145E0,4.331106E0,8.407044E-1,2.6190088E0],"split_indices":[1,1,1,1,1,0,0,5,5,1,1,5,1,3,1,4,0,0,0,0,1,0,0,1,0,0,0,5,3,0,0,0,0,0,0,0,0],"split_type":[0,0,0,0,0,0,0,0,0,0,0,0,0,0,0,0,0,0,0,0,0,0,0,0,0,0,0,0,0,0,0,0,0,0,0,0,0],"sum_hessian":[8E1,5.9E1,2.1E1,2.6E1,3.3E1,1.6E1,5E0,1.4E1,1.2E1,3E1,3E0,1E1,4E0,5E0,7E0,2.1E1,9E0,1E0,2E0,1E0,9E0,1E0,3E0,2E0,3E0,6E0,1E0,8E0,1.3E1,1E0,8E0,1E0,1E0,1E0,7E0,2E0,1.1E1],"tree_param":{"num_deleted":"0","num_feature":"6","num_nodes":"37","size_leaf_vector":"0"}},{"base_weights":[9.549433E0,7.319191E0,2.1763391E1,3.1515524E0,9.862789E0,1.4841456E0,4.3093486E0,7.815041E0,1.2272714E1,7.2112596E-1,1.7431403E0,2.7807572E0,5.8774295E0,4.351342E0,8.636583E0,7.9661527E0,1.4921347E1,9.8277473E-1,2.4479036E0,3.0155182E-1,3.0227187E0,-3.457438E-1,6.2993255E0,1.2194721E1,3.8194149E0,2.5190926E-1,1.078566E0,3.2487783E0,6.071205E-1,1.8374939E0,-2.3561096E0,7.107914E0,1.532486E0,1.3926697E-1,5.624672E0],"categories":[],"categories_nodes":[],"categories_segments":[],"categories_sizes":[],"default_left":[1,1,0,1,1,1,1,1,1,0,1,1,0,1,0,1,0,1,0,0,1,1,1,0,1,0,0,0,0,0,0,0,0,0,0],"id":10,"left_children":[1,3,-1,5,7,9,11,13,15,-1,17,19,-1,21,-1,23,-1,25,-1,-1,27,29,31,-1,33,-1,-1,-1,-1,-1,-1,-1,-1,-1,-1],"loss_changes":[2.0471562E3,7.109724E2,0E0,4.7658783E1,1.1629004E2,1.3120098E0,2.2007568E1,3.6404297E1,8.645117E1,0E0,2.417162E0,5.087219E0,0E0,6.622685E1,0E0,1.11236206E2,0E0,1.4836264E-1,0E0,0E0,2.9422226E0,1.7496656E1,8.379288E0,0E0,3.9078346E1,0E0,0E0,0E0,0E0,0E0,0E0,0E0,0E0,0E0,0E0],"parents":[2147483647,0,0,1,1,3,3,4,4,5,5,6,6,7,7,8,8,10,10,11,11,13,13,15,15,17,17,20,20,21,21,22,22,24,24],"right_children":[2,4,-1,6,8,10,12,14,16,-1,18,20,-1,22,-1,24,-1,26,-1,-1,28,30,32,-1,34,-1,-1,-1,-1,-1,-1,-1,-1,-1,-1],"split_conditions":[8.75E1,3.55E1,6.529018E0,1.55E1,3.5E0,5.5E0,5.5E0,1.5E0,6.05E1,2.163378E-1,2.5E0,1.8E1,1.7632289E0,5E-1,2.590975E0,5E-1,4.476404E0,2E0,7.343711E-1,9.0465546E-2,4.5E0,5.5E1,2.5E0,3.6584165E0,4.5E0,7.557278E-2,3.235698E-1,9.746335E-1,1.8213616E-1,5.512482E-1,-7.068329E-1,2.1323743E0,4.597458E-1,4.178009E-2,1.6874017E0],"split_indices":[1,1,0,1,3,1,5,5,1,0,3,1,0,3,0,4,0,5,0,0,5,1,3,0,3,0,0,0,0,0,0,0,0,0,0],"split_type":[0,0,0,0,0,0,0,0,0,0,0,0,0,0,0,0,0,0,0,0,0,0,0,0,0,0,0,0,0,0,0,0,0,0,0],"sum_hessian":[8E1,6.9E1,1.1E1,2.7E1,4.2E1,1.2E1,1.5E1,2.5E1,1.7E1,4E0,8E0,9E0,6E0,6E0,1.9E1,8E0,9E0,5E0,3E0,1E0,8E0,2E0,4E0,3E0,5E0,1E0,4E0,7E0,1E0,1E0,1E0,3E0,1E0,2E0,3E0],"tree_param":{"num_deleted":"0","num_feature":"6","num_nodes":"35","size_leaf_vector":"0"}},{"base_weights":[7.002884E0,5.7454896E0,1.9474552E1,2.361811E0,7.5996046E0,1.271249E0,3.3615696E0,6.1598577E0,9.307257E0,8.914585E-1,1.8525383E0,4.06598E0,1.2804352E0,4.844232E0,9.007847E0,1.5960388E0,9.629108E0,2.1412277E-1,9.377798E-1,4.714788E0,1.9140701E0,-4.216512E-3,2.1382751E0,6.04392E0,1.9892883E0,6.547783E0,1.08809E1,4.5878458E-1,1.0775229E0,-1.3630714E0,3.4608078E0,-3.2106018E-1,3.147354E-1,-2.0026855E0,2.8456683E0,1.9396553E0,8.924728E0],"categories":[],"categories_nodes":[],"categories_segments":[],"categories_sizes":[],"default_left":[1,1,0,1,1,1,1,1,1,1,0,1,1,1,0,0,1,0,1,0,1,1,0,0,1,1,0,0,0,0,0,0,0,0,0,0,0],"id":11,"left_children":[1,3,-1,5,7,9,11,13,15,17,-1,19,21,23,-1,-1,25,-1,27,-1,29,31,-1,-1,33,35,-1,-1,-1,-1,-1,-1,-1,-1,-1,-1,-1],"loss_changes":[1.1583352E3,4.5258057E2,0E0,2.6254974E1,6.068091E1,1.6600609E0,1.5317383E1,6.502368E1,3.426892E1,1.4432526E-1,0E0,4.9373474E0,5.519144E0,6.332776E1,0E0,0E0,2.0406494E0,0E0,1.7501163E-1,0E0,2.499284E1,4.042227E-1,0E0,0E0,3.304815E1,7.0315216E1,0E0,0E0,0E0,0E0,0E0,0E0,0E0,0E0,0E0,0E0,0E0],"parents":[2147483647,0,0,1,1,3,3,4,4,5,5,6,6,7,7,8,8,9,9,11,11,12,12,13,13,16,16,18,18,20,20,21,21,24,24,25,25],"right_children":[2,4,-1,6,8,10,12,14,16,18,-1,20,22,24,-1,-1,26,-1,28,-1,30,32,-1,-1,34,36,-1,-1,-1,-1,-1,-1,-1,-1,-1,-1,-1],"split_conditions":[9.35E1,3.55E1,5.8423657E0,1.8E1,3.5E0,5.5E0,2.85E1,7.85E1,3.9E1,5E-1,5.557615E-1,1.5E0,3.3E1,6.25E1,2.7023542E0,4.7881165E-1,6.05E1,6.4236835E-2,4E0,1.4144365E0,2.25E1,3.05E1,6.414826E-1,1.813176E0,5E-1,4.5E0,3.2642703E0,1.3763538E-1,3.2325688E-1,-4.0892145E-1,1.0382423E0,-9.631806E-2,9.442063E-2,-6.008057E-1,8.537005E-1,5.818966E-1,2.6774187E0],"split_indices":[1,1,0,1,3,5,1,1,1,5,0,4,1,1,0,0,1,0,1,0,1,1,0,0,3,3,0,0,0,0,0,0,0,0,0,0,0],"split_type":[0,0,0,0,0,0,0,0,0,0,0,0,0,0,0,0,0,0,0,0,0,0,0,0,0,0,0,0,0,0,0,0,0,0,0,0,0],"sum_hessian":[8E1,7.4E1,6E0,2.7E1,4.7E1,1.4E1,1.3E1,2.8E1,1.9E1,1E1,4E0,9E0,4E0,2.1E1,7E0,1E0,1.8E1,1E0,9E0,6E0,3E0,2E0,2E0,1.4E1,7E0,7E0,1.1E1,3E0,6E0,1E0,2E0,1E0,1E0,1E0,6E0,3E0,4E0],"tree_param":{"num_deleted":"0","num_feature":"6","num_nodes":"37","size_leaf_vector":"0"}},{"base_weights":[5.165934E0,4.3366413E0,1.6903858E1,2.3916998E0,6.1703873E0,1.5678952E0,5.3879557E0,4.9346156E0,7.3379755E0,2.8385875E0,8.6128116E-1,1.2984442E0,6.534719E0,3.8064818E0,7.308558E0,4.443929E0,8.109229E0,4.530518E-1,3.6765318E0,1.2326494E0,-1.9016012E0,3.752861E-1,1.5723801E0,9.853719E-1,4.89983E0,6.561661E-1,4.0142746E0,5.0182503E-1,2.0701208E0,-8.827896E-1,3.1477966E0,7.007678E0,2.969946E0],"categories":[],"categories_nodes":[],"categories_segments":[],"categories_sizes":[],"default_left":[1,1,0,1,1,1,1,1,1,1,1,1,0,1,0,0,0,0,1,1,0,0,0,1,1,0,0,0,0,0,0,0,0],"id":12,"left_children":[1,3,-1,5,7,9,11,13,15,17,19,21,-1,23,-1,-1,-1,-1,25,27,-1,-1,-1,29,31,-1,-1,-1,-1,-1,-1,-1,-1],"loss_changes":[7.1516235E2,2.59865E2,0E0,8.781708E1,2.006189E1,2.6287628E1,2.9032639E1,3.1098877E1,4.1400146E0,2.0322746E1,2.4917036E1,1.6856575E-1,0E0,4.760759E1,0E0,0E0,0E0,0E0,5.526825E0,1.1202053E1,0E0,0E0,0E0,2.7017393E1,2.800238E1,0E0,0E0,0E0,0E0,0E0,0E0,0E0,0E0],"parents":[2147483647,0,0,1,1,3,3,4,4,5,5,6,6,7,7,8,8,9,9,10,10,11,11,13,13,18,18,19,19,23,23,24,24],"right_children":[2,4,-1,6,8,10,12,14,16,18,20,22,-1,24,-1,-1,-1,-1,26,28,-1,-1,-1,30,32,-1,-1,-1,-1,-1,-1,-1,-1],"split_conditions":[9.55E1,4.95E1,5.0711575E0,7.5E0,3.5E0,5E-1,1.8E1,8.45E1,6.35E1,1.6E1,4.45E1,1.1E1,1.9604157E0,5E-1,2.1925676E0,1.3331788E0,2.4327688E0,1.3591555E-1,5E-1,2.35E1,-5.704804E-1,1.12585835E-1,4.7171405E-1,5E-1,1.5E0,1.9684984E-1,1.2042824E0,1.5054752E-1,6.210363E-1,-2.648369E-1,9.4433904E-1,2.1023035E0,8.909838E-1],"split_indices":[1,1,0,5,3,4,1,1,1,1,1,1,0,4,0,0,0,0,3,1,0,0,0,2,3,0,0,0,0,0,0,0,0],"split_type":[0,0,0,0,0,0,0,0,0,0,0,0,0,0,0,0,0,0,0,0,0,0,0,0,0,0,0,0,0,0,0,0,0],"sum_hessian":[8E1,7.6E1,4E0,3.8E1,3.8E1,3.1E1,7E0,2.1E1,1.7E1,1E1,2.1E1,2E0,5E0,1.6E1,5E0,5E0,1.2E1,3E0,7E0,1.9E1,2E0,1E0,1E0,5E0,1.1E1,1E0,6E0,1.1E1,8E0,3E0,2E0,4E0,7E0],"tree_param":{"num_deleted":"0","num_feature":"6","num_nodes":"33","size_leaf_vector":"0"}},{"base_weights":[3.8505387E0,3.216351E0,1.2846924E1,1.2360517E0,4.201679E0,6.7906183E-1,2.1150284E0,3.3354685E0,5.19189E0,1.8177719E0,4.2311233E-1,2.4843445E0,4.25176E-1,2.6870215E0,5.48142E0,1.0461197E0,5.339492E0,2.0885849E-1,2.5177994E0,9.21551E-1,-5.6121063E-1,8.702984E-1,3.2787125E0,1.0141373E0,-3.763733E-1,3.416935E0,1.2504578E0,6.4595556E0,4.153333E0,5.510055E-1,2.3135033E0,-1.0418739E0,2.66744E-1,1.9041188E-1,1.454979E0,3.819521E0,5.5773926E-1,2.022849E0,4.5581646E0,-5.886841E-1,2.122759E0,-1.890419E0,4.814514E0],"categories":[],"categories_nodes":[],"categories_segments":[],"categories_sizes":[],"default_left":[1,1,0,1,1,1,1,1,1,1,1,1,1,1,0,0,1,0,0,1,1,1,1,0,0,1,1,0,1,0,0,0,0,0,0,0,0,0,0,0,0,0,0],"id":13,"left_children":[1,3,-1,5,7,9,11,13,15,17,19,21,23,25,-1,-1,27,-1,-1,29,31,33,35,-1,-1,37,39,-1,41,-1,-1,-1,-1,-1,-1,-1,-1,-1,-1,-1,-1,-1,-1],"loss_changes":[4.2081702E2,1.450523E2,0E0,1.1782459E1,2.642694E1,4.4770193E0,5.1846123E0,2.7017365E1,7.876587E0,2.8529863E0,8.367179E0,7.403713E0,1.7979388E0,2.1941452E1,0E0,0E0,1.0713501E0,0E0,0E0,4.3988466E0,2.665718E0,1.31302E0,5.227333E0,0E0,0E0,1.6235077E1,1.7292494E1,0E0,6.1049652E1,0E0,0E0,0E0,0E0,0E0,0E0,0E0,0E0,0E0,0E0,0E0,0E0,0E0,0E0],"parents":[2147483647,0,0,1,1,3,3,4,4,5,5,6,6,7,7,8,8,9,9,10,10,11,11,12,12,13,13,16,16,19,19,20,20,21,21,22,22,25,25,26,26,28,28],"right_children":[2,4,-1,6,8,10,12,14,16,18,20,22,24,26,-1,-1,28,-1,-1,30,32,34,36,-1,-1,38,40,-1,42,-1,-1,-1,-1,-1,-1,-1,-1,-1,-1,-1,-1,-1,-1],"split_conditions":[9.55E1,3.45E1,3.8540773E0,5.5E0,3.5E0,5E-1,3.5E0,8.45E1,3.9E1,2E1,2E1,1.5E1,2.5E1,6.25E1,1.6444261E0,3.1383592E-1,5E-1,6.265755E-2,7.5533986E-1,1.8E1,4.5E0,2.5E0,3.1E1,3.0424118E-1,-1.1291199E-1,4.95E1,5E-1,1.9378668E0,5.05E1,1.6530165E-1,6.94051E-1,-3.125622E-1,8.00232E-2,5.7123568E-2,4.364937E-1,1.1458564E0,1.6732179E-1,6.0685474E-1,1.3674494E0,-1.7660522E-1,6.3682777E-1,-5.6712574E-1,1.4443543E0],"split_indices":[1,1,0,5,3,3,3,1,1,1,1,1,1,1,0,0,4,0,0,1,3,3,1,0,0,1,4,0,1,0,0,0,0,0,0,0,0,0,0,0,0,0,0],"split_type":[0,0,0,0,0,0,0,0,0,0,0,0,0,0,0,0,0,0,0,0,0,0,0,0,0,0,0,0,0,0,0,0,0,0,0,0,0,0,0,0,0,0,0],"sum_hessian":[8E1,7.6E1,4E0,2.6E1,5E1,1.7E1,9E0,2.9E1,2.1E1,2E0,1.5E1,7E0,2E0,2.4E1,5E0,1E0,2E1,1E0,1E0,1E1,5E0,3E0,4E0,1E0,1E0,1.5E1,9E0,8E0,1.2E1,9E0,1E0,3E0,2E0,2E0,1E0,3E0,1E0,8E0,7E0,3E0,6E0,1E0,1.1E1],"tree_param":{"num_deleted":"0","num_feature":"6","num_nodes":"43","size_leaf_vector":"0"}},{"base_weights":[2.8744457E0,2.4194403E0,1.1028442E1,9.927521E-1,3.113693E0,5.556109E-1,1.680331E0,2.2005434E0,3.8777003E0,1.545105E0,3.3535504E-1,1.964889E0,3.6139932E-1,1.049611E0,3.1120846E0,1.8902954E0,4.141149E0,1.7752838E-1,2.140129E0,7.2320867E-1,-4.3160248E-1,8.9152753E-1,2.8153687E0,8.620148E-1,-3.1991577E-1,2.265161E0,2.5768197E-1,-1.4815674E0,3.5794091E0,4.0223426E-1,1.9664764E0,-1.0031637E0,1.04969025E-1,4.960432E-1,1.2367325E0,3.4377747E0,4.7407532E-1,6.6974896E-1,3.1055195E0,1.417154E0,-9.533264E-1],"categories":[],"categories_nodes":[],"categories_segments":[],"categories_sizes":[],"default_left":[1,1,0,1,1,1,1,1,1,1,1,1,1,1,1,0,0,0,0,1,1,1,1,0,0,1,1,0,0,0,0,0,0,0,0,0,0,0,0,0,0],"id":14,"left_children":[1,3,-1,5,7,9,11,13,15,17,19,21,23,25,27,-1,-1,-1,-1,29,31,33,35,-1,-1,37,39,-1,-1,-1,-1,-1,-1,-1,-1,-1,-1,-1,-1,-1,-1],"loss_changes":[2.7383655E2,7.4166504E1,0E0,7.181755E0,2.7744934E1,3.4047947E0,3.0430183E0,2.4010689E1,6.308655E0,2.0612898E0,5.071615E0,4.7929974E0,1.2990028E0,1.1930491E1,3.5357315E1,0E0,0E0,0E0,0E0,3.5986443E0,1.9454015E0,6.914306E-2,4.199175E0,0E0,0E0,4.6236725E0,1.3988182E1,0E0,0E0,0E0,0E0,0E0,0E0,0E0,0E0,0E0,0E0,0E0,0E0,0E0,0E0],"parents":[2147483647,0,0,1,1,3,3,4,4,5,5,6,6,7,7,8,8,9,9,10,10,11,11,12,12,13,13,14,14,19,19,20,20,21,21,22,22,25,25,26,26],"right_children":[2,4,-1,6,8,10,12,14,16,18,20,22,24,26,28,-1,-1,-1,-1,30,32,34,36,-1,-1,38,40,-1,-1,-1,-1,-1,-1,-1,-1,-1,-1,-1,-1,-1,-1],"split_conditions":[9.65E1,3.45E1,3.308533E0,5.5E0,5E-1,5E-1,3.5E0,6.4E1,4.4E1,2E1,2E1,1.8E1,2.5E1,1.5E0,5E-1,5.6708866E-1,1.2423447E0,5.3258516E-2,6.4203876E-1,1.8E1,1.5E0,2.5E0,3.1E1,2.5860444E-1,-9.5974736E-2,5E-1,3E0,-4.4447023E-1,1.0738227E0,1.2067028E-1,5.8994293E-1,-3.0094913E-1,3.149071E-2,1.4881296E-1,3.7101975E-1,1.0313325E0,1.422226E-1,2.009247E-1,9.316559E-1,4.251462E-1,-2.8599793E-1],"split_indices":[1,1,0,5,2,3,3,1,1,1,1,1,1,3,3,0,0,0,0,1,5,3,1,0,0,3,5,0,0,0,0,0,0,0,0,0,0,0,0,0,0],"split_type":[0,0,0,0,0,0,0,0,0,0,0,0,0,0,0,0,0,0,0,0,0,0,0,0,0,0,0,0,0,0,0,0,0,0,0,0,0,0,0,0,0],"sum_hessian":[8E1,7.7E1,3E0,2.6E1,5.1E1,1.7E1,9E0,2.5E1,2.6E1,2E0,1.5E1,7E0,2E0,1.2E1,1.3E1,4E0,2.2E1,1E0,1E0,1E1,5E0,4E0,3E0,1E0,1E0,4E0,8E0,1E0,1.2E1,9E0,1E0,2E0,3E0,3E0,1E0,2E0,1E0,2E0,2E0,4E0,4E0],"tree_param":{"num_deleted":"0","num_feature":"6","num_nodes":"41","size_leaf_vector":"0"}},{"base_weights":[2.1357126E0,1.7795455E0,8.547043E0,6.380171E-1,2.1889153E0,4.6721432E-1,2.1124382E0,1.8431301E0,3.6297927E0,3.124256E-2,7.9158956E-1,1.0213262E0,2.444484E0,4.315057E0,1.5231323E0,3.023131E-1,-7.0202637E-1,3.795004E-2,1.0385861E0,1.9822015E0,3.3066887E-1,3.9519005E0,1.7192932E0,5.317833E0,2.2335167E0,1.9148458E0,1.7399597E-1,5.526953E-1,4.1544724E-2,-9.2713165E-1,-1.259079E-1,-5.7907104E-2,8.920479E-2,1.2363911E0,-2.7192688E-1,-1.980362E-1,2.2794857E0,9.5900834E-1,-2.604618E-1,-4.416911E-2,5.291285E0,-1.1229349E0,2.0974817E0],"categories":[],"categories_nodes":[],"categories_segments":[],"categories_sizes":[],"default_left":[1,1,0,1,1,1,0,1,1,1,1,1,1,1,1,1,1,1,1,1,1,1,1,0,0,0,0,0,0,0,0,0,0,0,0,0,0,0,0,0,0,0,0],"id":15,"left_children":[1,3,-1,5,7,9,-1,11,13,15,17,19,21,23,25,27,29,31,33,35,37,39,41,-1,-1,-1,-1,-1,-1,-1,-1,-1,-1,-1,-1,-1,-1,-1,-1,-1,-1,-1,-1],"loss_changes":[1.6975406E2,3.505339E1,0E0,4.5534143E0,2.1709167E1,2.945056E0,0E0,2.1224747E1,7.863785E0,2.1999075E0,2.1943421E0,1.39445305E1,2.2720963E1,2.7337646E0,1.7807245E0,4.9937248E-1,2.7232873E-1,2.4818124E-2,2.669242E0,6.284771E0,5.4498153E0,4.305191E1,2.3853294E1,0E0,0E0,0E0,0E0,0E0,0E0,0E0,0E0,0E0,0E0,0E0,0E0,0E0,0E0,0E0,0E0,0E0,0E0,0E0,0E0],"parents":[2147483647,0,0,1,1,3,3,4,4,5,5,7,7,8,8,9,9,10,10,11,11,12,12,13,13,14,14,15,15,16,16,17,17,18,18,19,19,20,20,21,21,22,22],"right_children":[2,4,-1,6,8,10,-1,12,14,16,18,20,22,24,26,28,30,32,34,36,38,40,42,-1,-1,-1,-1,-1,-1,-1,-1,-1,-1,-1,-1,-1,-1,-1,-1,-1,-1,-1,-1],"split_conditions":[9.65E1,2.65E1,2.564113E0,8.5E0,7.5E0,2.5E0,6.337315E-1,6E1,8.5E0,1.85E1,6.5E0,5E-1,6.85E1,5E-1,5.5E1,5E-1,2.2E1,2E0,2.55E1,1E0,2.5E0,5E-1,7.15E1,1.5953499E0,6.7005503E-1,5.744538E-1,5.2198794E-2,1.6580859E-1,1.2463418E-2,-2.781395E-1,-3.7772372E-2,-1.7372131E-2,2.6761437E-2,3.7091732E-1,-8.157807E-2,-5.941086E-2,6.8384576E-1,2.877025E-1,-7.8138545E-2,-1.3250734E-2,1.5873855E0,-3.368805E-1,6.2924457E-1],"split_indices":[1,1,0,5,5,3,0,1,5,1,1,4,1,4,1,4,1,1,1,5,3,4,1,0,0,0,0,0,0,0,0,0,0,0,0,0,0,0,0,0,0,0,0],"split_type":[0,0,0,0,0,0,0,0,0,0,0,0,0,0,0,0,0,0,0,0,0,0,0,0,0,0,0,0,0,0,0,0,0,0,0,0,0,0,0,0,0,0,0],"sum_hessian":[8E1,7.7E1,3E0,2.1E1,5.6E1,2E1,1E0,4.7E1,9E0,9E0,1.1E1,2.1E1,2.6E1,6E0,3E0,7E0,2E0,3E0,8E0,8E0,1.3E1,7E0,1.9E1,3E0,3E0,2E0,1E0,3E0,4E0,1E0,1E0,1E0,2E0,7E0,1E0,1E0,7E0,6E0,7E0,2E0,5E0,2E0,1.7E1],"tree_param":{"num_deleted":"0","num_feature":"6","num_nodes":"43","size_leaf_vector":"0"}},{"base_weights":[1.6055125E0,1.3592739E0,7.5546265E0,9.7140956E-1,2.1582043E0,6.653478E-1,2.012685E0,5.6170654E0,1.6132135E0,7.9902107E-1,-8.711395E-1,2.351654E0,2.1189372E-1,2.7521124E0,8.2232666E-1,5.749145E-1,3.4460652E0,-1.6428121E0,7.219391E-1,1.4987063E0,5.0140915E0,-1.0908966E0,3.3688507E0,1.7470284E0,-2.0516586E-1,1.2064669E0,2.1273576E-1,1.7354257E0,4.467926E-1,3.5820749E0,9.3814087E-1,-2.566223E-1,2.0699246E0,-8.586629E-1,1.1702169E0],"categories":[],"categories_nodes":[],"categories_segments":[],"categories_sizes":[],"default_left":[1,1,0,1,1,1,1,0,1,1,1,1,0,1,1,1,0,0,0,1,0,0,1,1,1,0,0,0,0,0,0,0,0,0,0],"id":16,"left_children":[1,3,-1,5,7,9,11,-1,13,15,17,19,-1,21,23,25,-1,-1,-1,27,-1,-1,29,31,33,-1,-1,-1,-1,-1,-1,-1,-1,-1,-1],"loss_changes":[1.0838826E2,2.2383759E1,0E0,1.6189072E1,3.806465E1,9.733095E0,6.826641E0,0E0,1.8453888E1,2.234082E1,6.10335E0,1.519455E1,0E0,2.5006248E1,1.4610292E1,8.664E0,0E0,0E0,0E0,1.4656982E0,0E0,0E0,7.857971E-1,5.706957E0,8.195291E0,0E0,0E0,0E0,0E0,0E0,0E0,0E0,0E0,0E0,0E0],"parents":[2147483647,0,0,1,1,3,3,4,4,5,5,6,6,8,8,9,9,10,10,11,11,13,13,14,14,15,15,19,19,22,22,23,23,24,24],"right_children":[2,4,-1,6,8,10,12,-1,14,16,18,20,-1,22,24,26,-1,-1,-1,28,-1,-1,30,32,34,-1,-1,-1,-1,-1,-1,-1,-1,-1,-1],"split_conditions":[9.75E1,6.65E1,2.266388E0,7.5E0,6.85E1,6.25E1,5.8E1,1.6851197E0,5E-1,6E1,6.45E1,5E0,6.356812E-2,7.05E1,3.5E0,5E-1,1.0338196E0,-4.9284366E-1,2.1658173E-1,3.5E0,1.5042275E0,-3.27269E-1,4.5E0,7.5E1,9.05E1,3.619401E-1,6.382073E-2,5.2062774E-1,1.340378E-1,1.0746225E0,2.8144228E-1,-7.69867E-2,6.209774E-1,-2.5759888E-1,3.510651E-1],"split_indices":[1,1,0,5,1,1,1,0,4,1,1,3,0,1,5,4,0,0,0,3,0,0,3,1,1,0,0,0,0,0,0,0,0,0,0],"split_type":[0,0,0,0,0,0,0,0,0,0,0,0,0,0,0,0,0,0,0,0,0,0,0,0,0,0,0,0,0,0,0,0,0,0,0],"sum_hessian":[8E1,7.8E1,2E0,5.4E1,2.4E1,4.3E1,1.1E1,2E0,2.2E1,4E1,3E0,9E0,2E0,8E0,1.4E1,3.8E1,2E0,2E0,1E0,8E0,1E0,1E0,7E0,7E0,7E0,1.3E1,2.5E1,6E0,2E0,6E0,1E0,1E0,6E0,5E0,2E0],"tree_param":{"num_deleted":"0","num_feature":"6","num_nodes":"35","size_leaf_vector":"0"}},{"base_weights":[1.2352619E0,1.0370268E0,6.043701E0,2.8858325E-1,1.3030393E0,1.5611012E-1,1.5352592E0,1.0618081E0,2.3547683E0,-2.0031795E-1,4.4012436E-1,1.2360109E0,-1.5998186E-1,3.102304E0,1.3393606E0,-1.0671377E-2,-6.3926953E-1,1.3050766E0,2.42849E-1,4.5976475E-1,1.5570587E0,-6.18811E-1,6.580607E-1,8.3431244E-1,3.4607239E0,1.5607849E0,1.16119385E-1,-1.11043386E-1,3.4596634E-1,-8.19973E-1,-1.3893127E-1,3.5842195E-1,-1.8481953E-1,1.1847672E0,-1.6489334E0,1.0464405E0,2.4736512E0,-1.9658406E-1,-8.3476764E-1,1.8966675E-1,7.974243E-1],"categories":[],"categories_nodes":[],"categories_segments":[],"categories_sizes":[],"default_left":[1,1,0,1,1,1,0,1,1,1,1,1,1,1,1,1,1,0,1,1,1,1,1,0,0,0,0,0,0,0,0,0,0,0,0,0,0,0,0,0,0],"id":17,"left_children":[1,3,-1,5,7,9,-1,11,13,15,17,19,21,23,25,27,29,-1,31,33,35,37,39,-1,-1,-1,-1,-1,-1,-1,-1,-1,-1,-1,-1,-1,-1,-1,-1,-1,-1],"loss_changes":[7.094187E1,1.5352501E1,0E0,3.3936534E0,1.2214867E1,2.214008E0,0E0,1.0626865E1,3.4354324E0,8.2563466E-1,1.7306688E0,1.0000244E1,3.0346076E0,1.1771431E0,1.4438944E0,3.247888E-1,1.5731871E-1,0E0,6.099395E-1,2.3356962E1,1.1452332E1,2.9181147E-1,4.45863E-2,0E0,0E0,0E0,0E0,0E0,0E0,0E0,0E0,0E0,0E0,0E0,0E0,0E0,0E0,0E0,0E0,0E0,0E0],"parents":[2147483647,0,0,1,1,3,3,4,4,5,5,7,7,8,8,9,9,10,10,11,11,12,12,13,13,14,14,15,15,16,16,18,18,19,19,20,20,21,21,22,22],"right_children":[2,4,-1,6,8,10,-1,12,14,16,18,20,22,24,26,28,30,-1,32,34,36,38,40,-1,-1,-1,-1,-1,-1,-1,-1,-1,-1,-1,-1,-1,-1,-1,-1,-1,-1],"split_conditions":[9.75E1,2.65E1,1.8131105E0,8.5E0,7.5E0,2.5E0,4.605778E-1,6.5E0,5E-1,1.85E1,5E-1,5E1,4.5E0,4.3E1,5E0,1.5E1,2.2E1,3.91523E-1,2.45E1,4.5E1,5E-1,2.5E0,8.4E1,2.5029373E-1,1.0382172E0,4.682355E-1,3.4835815E-2,-3.3313017E-2,1.037899E-1,-2.459919E-1,-4.1679382E-2,1.0752659E-1,-5.544586E-2,3.554302E-1,-4.9468005E-1,3.1393215E-1,7.4209535E-1,-5.897522E-2,-2.5043032E-1,5.690003E-2,2.3922731E-1],"split_indices":[1,1,0,5,5,3,0,5,4,1,5,1,3,1,3,1,1,0,1,1,2,3,1,0,0,0,0,0,0,0,0,0,0,0,0,0,0,0,0,0,0],"split_type":[0,0,0,0,0,0,0,0,0,0,0,0,0,0,0,0,0,0,0,0,0,0,0,0,0,0,0,0,0,0,0,0,0,0,0,0,0,0,0,0,0],"sum_hessian":[8E1,7.8E1,2E0,2.1E1,5.7E1,2E1,1E0,4.8E1,9E0,9E0,1.1E1,4.2E1,6E0,4E0,5E0,7E0,2E0,1E0,1E1,1.3E1,2.9E1,4E0,2E0,1E0,3E0,4E0,1E0,6E0,1E0,1E0,1E0,8E0,2E0,1E1,3E0,2E1,9E0,2E0,2E0,1E0,1E0],"tree_param":{"num_deleted":"0","num_feature":"6","num_nodes":"41","size_leaf_vector":"0"}},{"base_weights":[9.2882156E-1,7.687299E-1,4.834961E0,6.040181E-1,1.4903194E0,2.5944248E-1,1.0347027E0,5.1789856E-1,1.8274978E0,6.784009E-1,1.44480895E-2,1.9517686E0,5.924029E-1,-5.1116943E-3,1.3049698E0,2.4293182E0,1.021398E0,-1.8109322E-1,9.2927134E-1,2.6544845E-1,-5.5210876E-1,7.3442733E-1,4.141642E0,6.2044416E-2,1.4464798E0,2.940712E-1,-2.0286305E-1,1.1652145E0,3.7428665E0,1.1861999E0,9.869385E-2,-2.8395462E-1,-5.215454E-2,1.1527743E0,-5.0994873E-2,1.4656296E0,1.08636074E-1,3.6529922E-1,-1.1756134E0,1.8294433E0,-1.3354086E0,7.254062E-1,-9.4333905E-1,1.645486E0,2.671814E-2,-3.3863068E-2,-2.7043152E-1,1.8075867E0,-3.8095093E-1],"categories":[],"categories_nodes":[],"categories_segments":[],"categories_sizes":[],"default_left":[1,1,0,1,1,1,1,1,1,1,1,1,1,1,0,1,1,1,1,1,1,1,0,1,1,0,1,1,0,0,0,0,0,0,0,0,0,0,0,0,0,0,0,0,0,0,0,0,0],"id":18,"left_children":[1,3,-1,5,7,9,11,13,15,17,19,21,23,25,-1,27,29,31,33,35,37,39,-1,41,43,-1,45,47,-1,-1,-1,-1,-1,-1,-1,-1,-1,-1,-1,-1,-1,-1,-1,-1,-1,-1,-1,-1,-1],"loss_changes":[4.693579E1,8.489315E0,0E0,9.52618E0,3.6438522E0,3.8906114E0,1.0606688E1,2.0649023E0,2.3699722E0,3.1869884E0,3.701706E0,2.0950676E1,9.42256E0,2.9631147E-1,0E0,3.941063E0,7.95311E-1,3.8241744E-2,2.4688025E0,3.2284389E0,5.005515E0,1.8308578E1,0E0,1.0021365E1,2.2163677E0,0E0,2.509956E-2,4.661456E0,0E0,0E0,0E0,0E0,0E0,0E0,0E0,0E0,0E0,0E0,0E0,0E0,0E0,0E0,0E0,0E0,0E0,0E0,0E0,0E0,0E0],"parents":[2147483647,0,0,1,1,3,3,4,4,5,5,6,6,7,7,8,8,9,9,10,10,11,11,12,12,13,13,15,15,16,16,17,17,18,18,19,19,20,20,21,21,23,23,24,24,26,26,27,27],"right_children":[2,4,-1,6,8,10,12,14,16,18,20,22,24,26,-1,28,30,32,34,36,38,40,-1,42,44,-1,46,48,-1,-1,-1,-1,-1,-1,-1,-1,-1,-1,-1,-1,-1,-1,-1,-1,-1,-1,-1,-1,-1],"split_conditions":[9.75E1,7.5E0,1.4504883E0,5.85E1,3.1E1,5E-1,6.85E1,8.5E0,5E-1,1.6E1,3.95E1,6.6E1,8.85E1,5E-1,3.9149097E-1,5.5E0,5E0,4E0,5.35E1,5E-1,3.5E0,4E0,1.2424927E0,3.5E0,1.5E0,8.822136E-2,1.6E1,4.5E0,1.12286E0,3.5586E-1,2.9608155E-2,-8.518639E-2,-1.5646363E-2,3.4583232E-1,-1.52984625E-2,4.396889E-1,3.2590825E-2,1.0958977E-1,-3.5268402E-1,5.48833E-1,-4.0062258E-1,2.1762188E-1,-2.8300172E-1,4.9364582E-1,8.015443E-3,-1.0158921E-2,-8.112946E-2,5.42276E-1,-1.1428528E-1],"split_indices":[1,5,0,1,1,4,1,5,4,1,1,1,1,4,0,3,3,1,1,3,5,5,0,5,4,0,1,3,0,0,0,0,0,0,0,0,0,0,0,0,0,0,0,0,0,0,0,0,0],"split_type":[0,0,0,0,0,0,0,0,0,0,0,0,0,0,0,0,0,0,0,0,0,0,0,0,0,0,0,0,0,0,0,0,0,0,0,0,0,0,0,0,0,0,0,0,0,0,0,0,0],"sum_hessian":[8E1,7.8E1,2E0,6.5E1,1.3E1,3.7E1,2.8E1,4E0,9E0,1.3E1,2.4E1,8E0,2E1,3E0,1E0,4E0,5E0,3E0,1E1,1.7E1,7E0,6E0,2E0,1.3E1,7E0,1E0,2E0,3E0,1E0,4E0,1E0,1E0,2E0,8E0,2E0,1E0,1.6E1,3E0,4E0,4E0,2E0,8E0,5E0,6E0,1E0,1E0,1E0,2E0,1E0],"tree_param":{"num_deleted":"0","num_feature":"6","num_nodes":"49","size_leaf_vector":"0"}},{"base_weights":[7.250028E-1,5.964728E-1,3.8679607E0,2.9835692E-1,9.102726E-1,1.1706997E-1,1.366567E0,5.60795E-1,1.3089923E0,2.1039708E-1,-1.6213531E0,1.6307983E0,2.2705078E-2,7.64893E-1,-2.8611678E-1,2.6221466E-1,1.7232984E0,-1.225543E-1,4.5405543E-1,1.8490257E0,4.2479807E-1,1.7644978E-1,-1.0681915E0,4.2889708E-1,-2.8559875E-1,2.1213973E0,3.967514E-1,-1.106959E0,9.714345E-2,1.3760757E-1,1.7645569E0,-2.6335907E-1,2.6409404E0,3.652191E-2,1.194046E0,-5.885188E-2,4.4117737E-1,1.387736E-1,5.760549E-1,3.1212082E0,1.1012903E0,-4.4599915E-1,8.2633466E-1],"categories":[],"categories_nodes":[],"categories_segments":[],"categories_sizes":[],"default_left":[1,1,0,1,1,1,1,1,1,1,0,0,0,1,1,1,1,1,1,1,1,1,0,1,0,1,1,0,0,0,0,0,0,0,0,0,0,0,0,0,0,0,0],"id":19,"left_children":[1,3,-1,5,7,9,11,13,15,17,-1,-1,-1,19,21,23,25,27,29,31,33,35,-1,37,-1,39,41,-1,-1,-1,-1,-1,-1,-1,-1,-1,-1,-1,-1,-1,-1,-1,-1],"loss_changes":[3.0413998E1,7.118761E0,0E0,7.973424E0,4.560978E0,6.344083E0,2.0935144E0,4.021614E0,6.9207973E0,2.9761965E0,0E0,0E0,0E0,5.851282E0,1.9972904E0,6.703577E-1,5.495495E0,3.567878E0,8.465996E0,7.3868275E0,4.4366007E0,2.751275E-1,0E0,1.3352847E-1,0E0,5.741867E0,1.8166704E0,0E0,0E0,0E0,0E0,0E0,0E0,0E0,0E0,0E0,0E0,0E0,0E0,0E0,0E0,0E0,0E0],"parents":[2147483647,0,0,1,1,3,3,4,4,5,5,6,6,7,7,8,8,9,9,13,13,14,14,15,15,16,16,17,17,18,18,19,19,20,20,21,21,23,23,25,25,26,26],"right_children":[2,4,-1,6,8,10,12,14,16,18,-1,-1,-1,20,22,24,26,28,30,32,34,36,-1,38,-1,40,42,-1,-1,-1,-1,-1,-1,-1,-1,-1,-1,-1,-1,-1,-1,-1,-1],"split_conditions":[9.75E1,5E-1,1.1603882E0,8.8E1,3.5E0,8.6E1,1.5E0,1.5E0,4.3E1,1.5E0,-4.8640597E-1,4.892395E-1,6.811524E-3,5E-1,4.5E1,5.5E0,8.5E1,5E-1,6.6E1,5E-1,7.5E0,2.5E0,-3.2045746E-1,4.5E0,-8.567963E-2,6.5E0,9.1E1,-3.320877E-1,2.9143035E-2,4.1282274E-2,5.293671E-1,-7.900772E-2,7.9228216E-1,1.0956574E-2,3.582138E-1,-1.7655564E-2,1.3235322E-1,4.1632082E-2,1.7281647E-1,9.363625E-1,3.3038712E-1,-1.3379975E-1,2.4790041E-1],"split_indices":[1,2,0,1,3,1,4,4,1,5,0,0,0,3,1,3,1,3,1,4,5,3,0,3,0,5,1,0,0,0,0,0,0,0,0,0,0,0,0,0,0,0,0],"split_type":[0,0,0,0,0,0,0,0,0,0,0,0,0,0,0,0,0,0,0,0,0,0,0,0,0,0,0,0,0,0,0,0,0,0,0,0,0,0,0,0,0,0,0],"sum_hessian":[8E1,7.8E1,2E0,4.1E1,3.7E1,3.6E1,5E0,2.1E1,1.6E1,3.5E1,1E0,4E0,1E0,1.7E1,4E0,5E0,1.1E1,1.5E1,2E1,3E0,1.4E1,3E0,1E0,4E0,1E0,8E0,3E0,2E0,1.3E1,1.7E1,3E0,1E0,2E0,1E1,4E0,2E0,1E0,2E0,2E0,3E0,5E0,1E0,2E0],"tree_param":{"num_deleted":"0","num_feature":"6","num_nodes":"43","size_leaf_vector":"0"}},{"base_weights":[5.547132E-1,4.5124918E-1,3.0943604E0,2.1545576E-1,6.99988E-1,7.6039314E-2,1.0392812E0,4.3240547E-1,1.0050955E0,1.5471503E-1,-1.3781433E0,1.2394165E0,1.9302368E-2,5.955603E-1,-2.4143295E-1,-6.728363E-2,1.2396971E0,2.4975011E-1,-3.6208534E-1,1.4726334E0,3.219701E-1,1.521883E-1,-9.07959E-1,3.5887146E-1,-3.2895914E-1,1.8319016E0,7.071499E-1,-1.0472244E-1,5.886133E-1,-5.91362E-2,-9.384155E-1,-2.2385406E-1,2.1127472E0,2.6562084E-2,9.0747374E-1,-4.7082264E-2,3.75E-1,2.999644E0,4.9811935E-1,2.2324219E0,-4.7559466E-2],"categories":[],"categories_nodes":[],"categories_segments":[],"categories_sizes":[],"default_left":[1,1,0,1,1,1,1,1,1,1,0,0,0,1,1,1,1,1,1,1,1,1,0,0,0,1,1,0,0,0,0,0,0,0,0,0,0,0,0,0,0],"id":20,"left_children":[1,3,-1,5,7,9,11,13,15,17,-1,-1,-1,19,21,23,25,27,29,31,33,35,-1,-1,-1,37,39,-1,-1,-1,-1,-1,-1,-1,-1,-1,-1,-1,-1,-1,-1],"loss_changes":[1.9887394E1,4.4826107E0,0E0,4.744876E0,2.6677666E0,4.4463477E0,1.2008786E0,2.562468E0,4.3603E0,1.8585405E0,0E0,0E0,0E0,3.8451104E0,1.4499748E0,5.641115E-1,3.1198463E0,3.7852893E0,9.9209815E-1,4.8167276E0,2.570333E0,1.952551E-1,0E0,0E0,0E0,7.8509026E0,1.0466406E1,0E0,0E0,0E0,0E0,0E0,0E0,0E0,0E0,0E0,0E0,0E0,0E0,0E0,0E0],"parents":[2147483647,0,0,1,1,3,3,4,4,5,5,6,6,7,7,8,8,9,9,13,13,14,14,15,15,16,16,17,17,18,18,19,19,20,20,21,21,25,25,26,26],"right_children":[2,4,-1,6,8,10,12,14,16,18,-1,-1,-1,20,22,24,26,28,30,32,34,36,-1,-1,-1,38,40,-1,-1,-1,-1,-1,-1,-1,-1,-1,-1,-1,-1,-1,-1],"split_conditions":[9.75E1,5E-1,9.283081E-1,8.8E1,3.5E0,8.6E1,1.5E0,1.5E0,3.5E1,4.5E0,-4.13443E-1,3.7182495E-1,5.7907104E-3,5E-1,4.5E1,2.5E1,4.5E0,1.5E0,5.3E1,5E-1,7.5E0,2.5E0,-2.723877E-1,1.0766144E-1,-9.8687746E-2,6.5E0,4.9E1,-3.1416733E-2,1.7658399E-1,-1.774086E-2,-2.8152466E-1,-6.7156225E-2,6.3382417E-1,7.968625E-3,2.7224213E-1,-1.4124679E-2,1.12500004E-1,8.998932E-1,1.4943582E-1,6.697266E-1,-1.426784E-2],"split_indices":[1,2,0,1,3,1,4,4,1,5,0,0,0,3,1,1,3,5,1,4,5,3,0,0,0,5,1,0,0,0,0,0,0,0,0,0,0,0,0,0,0],"split_type":[0,0,0,0,0,0,0,0,0,0,0,0,0,0,0,0,0,0,0,0,0,0,0,0,0,0,0,0,0,0,0,0,0,0,0,0,0,0,0,0,0],"sum_hessian":[8E1,7.8E1,2E0,4.1E1,3.7E1,3.6E1,5E0,2.1E1,1.6E1,3.5E1,1E0,4E0,1E0,1.7E1,4E0,3E0,1.3E1,3E1,5E0,3E0,1.4E1,3E0,1E0,1E0,2E0,5E0,8E0,1.5E1,1.5E1,4E0,1E0,1E0,2E0,1E1,4E0,2E0,1E0,2E0,3E0,2E0,6E0],"tree_param":{"num_deleted":"0","num_feature":"6","num_nodes":"41","size_leaf_vector":"0"}},{"base_weights":[4.268797E-1,3.545504E-1,3.1066132E0,1.462955E-1,5.6973386E-1,3.7887212E-2,7.904307E-1,3.733425E-1,8.2871246E-1,1.0401837E-1,-1.1714172E0,9.4195557E-1,1.6403198E-2,9.956274E-1,5.8541242E-2,1.1707815E0,-1.5799561E-1,4.147749E-1,-4.9305495E-2,-2.584095E-1,1.7997315E0,3.6350033E-1,-1.4084555E-1,6.2561715E-1,2.1047058E0,-3.5458374E-1,3.1417847E-1,-5.6607928E-2,8.955924E-1,-2.2532511E-1,5.456441E-1,-6.5265656E-2,-3.0103555E-1,9.089737E-1,2.6813812E0,8.515167E-2,7.06248E-1,-7.7176666E-1,-5.767822E-4,1.3706818E0,-6.483841E-1,2.399709E0,6.09848E-1,-4.818573E-1,-1.5154012E-1],"categories":[],"categories_nodes":[],"categories_segments":[],"categories_sizes":[],"default_left":[1,1,0,1,1,1,1,1,1,1,0,0,0,1,1,1,1,1,1,1,1,1,1,1,1,1,0,0,0,0,0,0,0,0,0,0,0,0,0,0,0,0,0,0,0],"id":21,"left_children":[1,3,-1,5,7,9,11,13,15,17,-1,-1,-1,19,21,23,25,27,29,31,33,35,37,39,41,43,-1,-1,-1,-1,-1,-1,-1,-1,-1,-1,-1,-1,-1,-1,-1,-1,-1,-1,-1],"loss_changes":[1.4598239E1,3.5016909E0,0E0,2.9028957E0,1.6741915E0,3.080839E0,6.8825555E-1,4.643221E0,5.585335E0,1.7357208E0,0E0,0E0,0E0,8.532076E0,1.0848793E0,4.792967E0,5.755217E-1,2.770487E0,2.7410173E0,1.3284564E-2,1.489378E0,6.076852E-1,9.7303873E-1,9.431646E0,3.0049324E-1,3.0347586E-2,0E0,0E0,0E0,0E0,0E0,0E0,0E0,0E0,0E0,0E0,0E0,0E0,0E0,0E0,0E0,0E0,0E0,0E0,0E0],"parents":[2147483647,0,0,1,1,3,3,4,4,5,5,6,6,7,7,8,8,9,9,13,13,14,14,15,15,16,16,17,17,18,18,19,19,20,20,21,21,22,22,23,23,24,24,25,25],"right_children":[2,4,-1,6,8,10,12,14,16,18,-1,-1,-1,20,22,24,26,28,30,32,34,36,38,40,42,44,-1,-1,-1,-1,-1,-1,-1,-1,-1,-1,-1,-1,-1,-1,-1,-1,-1,-1,-1],"split_conditions":[9.85E1,5E-1,9.31984E-1,8.8E1,6.1E1,8.6E1,1.5E0,5E-1,4.5E0,1.5E0,-3.5142517E-1,2.825867E-1,4.9209595E-3,1.5E0,2.5E1,3.5E0,9.1E1,1.5E0,6.5E1,2.5E1,5.5E0,2.5E0,1E0,2.5E0,8.9E1,7E1,9.425355E-2,-1.6982378E-2,2.6867774E-1,-6.759754E-2,1.6369323E-1,-1.9579697E-2,-9.031067E-2,2.726921E-1,8.044144E-1,2.5545502E-2,2.1187441E-1,-2.3153001E-1,-1.7303467E-4,4.1120455E-1,-1.9451524E-1,7.199127E-1,1.8295442E-1,-1.445572E-1,-4.5462035E-2],"split_indices":[1,2,0,1,1,1,4,4,3,3,0,0,0,3,1,3,1,4,1,1,3,3,3,3,1,1,0,0,0,0,0,0,0,0,0,0,0,0,0,0,0,0,0,0,0],"split_type":[0,0,0,0,0,0,0,0,0,0,0,0,0,0,0,0,0,0,0,0,0,0,0,0,0,0,0,0,0,0,0,0,0,0,0,0,0,0,0,0,0,0,0,0,0],"sum_hessian":[8E1,7.9E1,1E0,4.1E1,3.8E1,3.6E1,5E0,2.3E1,1.5E1,3.5E1,1E0,4E0,1E0,7E0,1.6E1,1.1E1,4E0,1.1E1,2.4E1,3E0,4E0,6E0,1E1,8E0,3E0,3E0,1E0,6E0,5E0,1.9E1,5E0,1E0,2E0,3E0,1E0,4E0,2E0,1E0,9E0,5E0,3E0,2E0,1E0,1E0,2E0],"tree_param":{"num_deleted":"0","num_feature":"6","num_nodes":"45","size_leaf_vector":"0"}},{"base_weights":[3.3847788E-1,2.7669322E-1,2.640625E0,1.9533703E-1,6.46277E-1,2.4568893E-1,-1.5645176E-1,3.8647175E-1,1.4700724E0,1.09164394E-1,5.505968E-1,-4.4585672E-1,3.1676865E-1,1.1804161E-1,1.1524149E0,2.2791748E0,-7.406616E-2,2.6421754E-2,6.012166E-1,8.302439E-1,-7.4550086E-3,-1.166638E-1,4.9926567E-1,8.247219E-2,-9.95697E-1,7.1588135E-1,1.3946533E-2,1.4804134E-1,2.8275044E0,-3.3858237E-1,1.927124E-1,8.100052E-2,-4.072164E-1],"categories":[],"categories_nodes":[],"categories_segments":[],"categories_sizes":[],"default_left":[1,1,0,1,1,1,1,1,1,1,1,0,0,1,0,0,0,1,1,1,1,1,0,0,0,0,0,0,0,0,0,0,0],"id":22,"left_children":[1,3,-1,5,7,9,11,13,15,17,19,-1,-1,21,-1,-1,-1,23,25,27,29,31,-1,-1,-1,-1,-1,-1,-1,-1,-1,-1,-1],"loss_changes":[1.0790585E1,2.279193E0,0E0,1.225225E0,2.428228E0,2.395911E0,1.3738045E0,2.331194E0,3.9169087E0,1.6940904E0,2.8152256E0,0E0,0E0,9.529997E-1,0E0,0E0,0E0,2.201855E0,3.9405107E-1,1.5931848E1,5.2921534E-1,4.3500793E-1,0E0,0E0,0E0,0E0,0E0,0E0,0E0,0E0,0E0,0E0,0E0],"parents":[2147483647,0,0,1,1,3,3,4,4,5,5,6,6,7,7,8,8,9,9,10,10,13,13,17,17,18,18,19,19,20,20,21,21],"right_children":[2,4,-1,6,8,10,12,14,16,18,20,-1,-1,22,-1,-1,-1,24,26,28,30,32,-1,-1,-1,-1,-1,-1,-1,-1,-1,-1,-1],"split_conditions":[9.85E1,7.5E0,7.921875E-1,6.5E0,5.5E0,5E-1,4.5E0,7.6E1,5.3E1,8.8E1,7E1,-1.3375703E-1,9.50306E-2,8.5E0,3.457245E-1,6.837525E-1,-2.221985E-2,8.6E1,1.5E0,6E1,8E1,3.5E0,1.497797E-1,2.4741659E-2,-2.9870912E-1,2.1476442E-1,4.18396E-3,4.4412404E-2,8.4825134E-1,-1.0157471E-1,5.7813723E-2,2.4300158E-2,-1.2216493E-1],"split_indices":[1,5,0,5,3,2,3,1,1,1,1,0,0,5,0,0,0,1,4,1,1,3,0,0,0,0,0,0,0,0,0,0,0],"split_type":[0,0,0,0,0,0,0,0,0,0,0,0,0,0,0,0,0,0,0,0,0,0,0,0,0,0,0,0,0,0,0,0,0],"sum_hessian":[8E1,7.9E1,1E0,6.6E1,1.3E1,5.8E1,8E0,1.1E1,2E0,4.1E1,1.7E1,5E0,3E0,9E0,2E0,1E0,1E0,3.6E1,5E0,1.1E1,6E0,6E0,3E0,3.5E1,1E0,4E0,1E0,9E0,2E0,2E0,4E0,4E0,2E0],"tree_param":{"num_deleted":"0","num_feature":"6","num_nodes":"33","size_leaf_vector":"0"}},{"base_weights":[2.6911387E-1,2.1636435E-1,2.2445374E0,4.3170482E-1,9.851722E-2,-2.7470398E-1,5.972156E-1,-1.0017483E-1,2.7949852E-1,-1.0151825E0,7.642822E-2,-1.7400813E-1,7.215996E-1,4.1371346E-2,-1.1991526E0,7.3273647E-1,-1.0622597E-1,-1.215922E-1,2.4897258E-1,1.3170757E0,2.9964507E-1,-4.2024675E-1,1.8496804E-1,1.295578E0,-1.3984172E-1,-2.6134783E-1,4.2447662E-1,7.778931E-2,2.9566956E-1,1.4677255E0,1.3126373E-1,-3.4762955E-1,1.112737E0,-6.563133E-1,3.8004303E-1,4.4319215E-1,-2.2548914E-1,5.9643555E-1,2.2620037E0,3.340912E-1,-3.0144653E-1,-6.0980225E-1,3.2661438E-2,1.313324E-1,4.784139E-1],"categories":[],"categories_nodes":[],"categories_segments":[],"categories_sizes":[],"default_left":[1,1,0,1,1,1,1,1,1,0,1,0,1,1,0,1,1,0,1,1,1,1,1,1,1,1,1,0,0,0,0,0,0,0,0,0,0,0,0,0,0,0,0,0,0],"id":23,"left_children":[1,3,-1,5,7,9,11,13,15,-1,17,-1,19,21,-1,23,25,-1,27,29,31,33,35,37,39,41,43,-1,-1,-1,-1,-1,-1,-1,-1,-1,-1,-1,-1,-1,-1,-1,-1,-1,-1],"loss_changes":[7.9547744E0,1.9876504E0,0E0,3.4377694E0,1.9338546E0,1.6376237E0,2.3319054E0,4.094069E0,4.972935E0,0E0,2.0110965E-1,0E0,4.630623E0,1.6686163E0,0E0,6.565778E0,1.4281133E0,0E0,9.813011E-4,1.2364788E0,7.228639E0,1.3829571E0,2.113744E0,4.0562134E0,5.602497E-1,1.3517519E0,4.143715E-4,0E0,0E0,0E0,0E0,0E0,0E0,0E0,0E0,0E0,0E0,0E0,0E0,0E0,0E0,0E0,0E0,0E0,0E0],"parents":[2147483647,0,0,1,1,3,3,4,4,5,5,6,6,7,7,8,8,10,10,12,12,13,13,15,15,16,16,18,18,19,19,20,20,21,21,22,22,23,23,24,24,25,25,26,26],"right_children":[2,4,-1,6,8,10,12,14,16,-1,18,-1,20,22,-1,24,26,-1,28,30,32,34,36,38,40,42,44,-1,-1,-1,-1,-1,-1,-1,-1,-1,-1,-1,-1,-1,-1,-1,-1,-1,-1],"split_conditions":[9.85E1,5E-1,6.7336124E-1,5E-1,4.9E1,1E0,1.75E1,4.45E1,6.95E1,-3.0455476E-1,4.45E1,-5.220244E-2,4.75E1,1.5E0,-3.597458E-1,6.5E0,9.4E1,-3.6477663E-2,7.6E1,8.5E0,7.35E1,4.5E0,3.5E0,5E-1,5.2E1,1.5E0,9.55E1,2.3336792E-2,8.870087E-2,4.4031766E-1,3.937912E-2,-1.0428887E-1,3.3382112E-1,-1.96894E-1,1.1401291E-1,1.3295765E-1,-6.764674E-2,1.7893067E-1,6.7860115E-1,1.0022736E-1,-9.043396E-2,-1.8294068E-1,9.798432E-3,3.939972E-2,1.4352418E-1],"split_indices":[1,4,0,3,1,5,1,1,1,0,1,0,1,5,0,5,1,0,1,5,1,3,3,2,1,4,1,0,0,0,0,0,0,0,0,0,0,0,0,0,0,0,0,0,0],"split_type":[0,0,0,0,0,0,0,0,0,0,0,0,0,0,0,0,0,0,0,0,0,0,0,0,0,0,0,0,0,0,0,0,0,0,0,0,0,0,0,0,0,0,0,0,0],"sum_hessian":[8E1,7.9E1,1E0,2.7E1,5.2E1,5E0,2.2E1,2.5E1,2.7E1,1E0,4E0,3E0,1.9E1,2.3E1,2E0,1.2E1,1.5E1,2E0,2E0,7E0,1.2E1,5E0,1.8E1,7E0,5E0,1.2E1,3E0,1E0,1E0,6E0,1E0,7E0,5E0,4E0,1E0,1.1E1,7E0,5E0,2E0,1E0,4E0,5E0,7E0,1E0,2E0],"tree_param":{"num_deleted":"0","num_feature":"6","num_nodes":"45","size_leaf_vector":"0"}},{"base_weights":[2.0814617E-1,1.630517E-1,1.9078522E0,2.7023293E-2,3.05363E-1,2.584103E-1,-8.5612625E-2,5.032056E-1,2.0966747E-1,-3.4021187E-1,4.5259926E-1,1.20936535E-1,-4.9014968E-1,2.3674427E-1,1.7171402E0,1.4761083E-2,4.683126E-1,-8.628998E-1,1.21650696E-1,6.961918E-1,-1.477356E-1,2.6823992E-1,-3.7462157E-1,-7.329449E-1,8.4750366E-1,8.4225126E-2,6.1538696E-1,-1.9478989E-1,1.8092576E-1,1.1147995E0,1.2895033E-1,-1.211586E-1,3.0363464E-1,1.3087921E0,2.7385965E-1,-2.0161946E-1,6.958008E-3,4.160715E-1,-1.4020386E-1,-7.827708E-1,1.5840149E-1,-2.0383148E-1,-1.1154693E0,3.334554E-1,-3.1067657E-1,8.7046814E-1,5.2612305E-2,-2.9176766E-1,2.4202728E-1,5.419445E-1,-5.1217217E-2,1.809611E0,-4.848175E-1,2.4237932E-1,-1.7870076E-1],"categories":[],"categories_nodes":[],"categories_segments":[],"categories_sizes":[],"default_left":[1,1,0,1,1,1,1,1,1,1,1,1,1,1,0,1,1,0,1,1,1,1,1,1,0,1,1,1,1,1,1,0,0,0,0,0,0,0,0,0,0,0,0,0,0,0,0,0,0,0,0,0,0,0,0],"id":24,"left_children":[1,3,-1,5,7,9,11,13,15,17,19,21,23,25,-1,27,29,-1,31,33,35,37,39,41,-1,43,45,47,49,51,53,-1,-1,-1,-1,-1,-1,-1,-1,-1,-1,-1,-1,-1,-1,-1,-1,-1,-1,-1,-1,-1,-1,-1,-1],"loss_changes":[5.897357E0,1.5404184E0,0E0,1.1167477E0,6.3286734E-1,1.7814211E0,2.482424E0,3.4750764E0,1.4046115E0,1.0706122E0,1.7114601E0,1.5604362E0,3.8689318E0,5.834217E-1,0E0,6.2718195E-1,2.4889657E0,0E0,1.6935015E-1,1.7113411E0,3.474483E-2,1.0244291E0,1.211757E0,1.5942221E0,0E0,9.8938996E-1,3.8486242E-1,4.095082E-1,8.6583656E-1,5.3230596E0,3.5738242E-1,0E0,0E0,0E0,0E0,0E0,0E0,0E0,0E0,0E0,0E0,0E0,0E0,0E0,0E0,0E0,0E0,0E0,0E0,0E0,0E0,0E0,0E0,0E0,0E0],"parents":[2147483647,0,0,1,1,3,3,4,4,5,5,6,6,7,7,8,8,9,9,10,10,11,11,12,12,13,13,15,15,16,16,18,18,19,19,20,20,21,21,22,22,23,23,25,25,26,26,27,27,28,28,29,29,30,30],"right_children":[2,4,-1,6,8,10,12,14,16,18,20,22,24,26,-1,28,30,-1,32,34,36,38,40,42,-1,44,46,48,50,52,54,-1,-1,-1,-1,-1,-1,-1,-1,-1,-1,-1,-1,-1,-1,-1,-1,-1,-1,-1,-1,-1,-1,-1,-1],"split_conditions":[9.85E1,5E-1,5.723557E-1,1.5E0,5E-1,5E-1,3E0,5.5E0,6.1E1,5E-1,4.5E0,1.5E0,5.5E0,7.9E1,5.151421E-1,2.5E0,7.1E1,-2.5886995E-1,4.4E1,3.9E1,5.8E1,5.5E0,1.5E0,4.5E1,2.5425112E-1,5.5E1,9E1,8.5E0,3.5E0,6.5E0,5E0,-3.6347583E-2,9.1090396E-2,3.9263764E-1,8.2157895E-2,-6.048584E-2,2.0874024E-3,1.24821454E-1,-4.206116E-2,-2.3483126E-1,4.7520448E-2,-6.1149444E-2,-3.346408E-1,1.0003663E-1,-9.320298E-2,2.6114047E-1,1.5783692E-2,-8.75303E-2,7.260819E-2,1.6258335E-1,-1.5365166E-2,5.4288334E-1,-1.4544526E-1,7.27138E-2,-5.361023E-2],"split_indices":[1,2,0,3,4,5,5,3,1,3,5,4,3,1,0,3,1,0,1,1,1,3,5,1,0,1,1,5,3,5,3,0,0,0,0,0,0,0,0,0,0,0,0,0,0,0,0,0,0,0,0,0,0,0,0],"split_type":[0,0,0,0,0,0,0,0,0,0,0,0,0,0,0,0,0,0,0,0,0,0,0,0,0,0,0,0,0,0,0,0,0,0,0,0,0,0,0,0,0,0,0,0,0,0,0,0,0,0,0,0,0,0,0],"sum_hessian":[8E1,7.9E1,1E0,4.1E1,3.8E1,1.3E1,2.8E1,1.1E1,2.7E1,3E0,1E1,1.9E1,9E0,1E1,1E0,1.6E1,1.1E1,1E0,2E0,7E0,3E0,1.5E1,4E0,8E0,1E0,8E0,2E0,7E0,9E0,3E0,8E0,1E0,1E0,2E0,5E0,2E0,1E0,1.1E1,4E0,2E0,2E0,4E0,4E0,5E0,3E0,1E0,1E0,6E0,1E0,3E0,6E0,2E0,1E0,6E0,2E0],"tree_param":{"num_deleted":"0","num_feature":"6","num_nodes":"55","size_leaf_vector":"0"}},{"base_weights":[1.689901E-1,1.3056064E-1,1.6216736E0,1.8113771E-2,2.4830955E-1,1.96052E-1,-6.841206E-2,4.1881943E-1,1.663657E-1,4.5261478E-1,-1.2517002E-1,7.942953E-2,-3.5725403E-1,1.9151722E-1,1.4595718E0,1.8111622E-2,3.6252847E-1,-1.7246437E-1,8.6215514E-1,-4.5616913E-1,2.3712158E-1,-1.6856518E-1,2.976584E-1,-5.5703396E-1,7.203827E-1,5.971612E-2,5.230815E-1,-1.3822007E-1,1.4136581E-1,8.797226E-1,9.238349E-2,3.3013406E-1,1.1067911E0,2.5039673E-2,-6.2491864E-1,3.1221518E-1,5.92041E-3,-4.3714115E-1,3.4358406E-1,5.991955E-1,-5.3488415E-2,-1.5491334E-1,-8.477478E-1,2.5009155E-1,-2.4077606E-1,7.398987E-1,4.472351E-2,-2.9588586E-1,9.341717E-2,4.200039E-1,-3.805106E-2,1.4476929E0,-4.1209412E-1,-2.4470737E-2,3.3424887E-1],"categories":[],"categories_nodes":[],"categories_segments":[],"categories_sizes":[],"default_left":[1,1,0,1,1,1,1,1,1,1,1,1,1,1,0,1,1,0,1,1,1,1,1,1,0,1,1,1,1,1,1,0,0,0,0,0,0,0,0,0,0,0,0,0,0,0,0,0,0,0,0,0,0,0,0],"id":25,"left_children":[1,3,-1,5,7,9,11,13,15,17,19,21,23,25,-1,27,29,-1,31,33,35,37,39,41,-1,43,45,47,49,51,53,-1,-1,-1,-1,-1,-1,-1,-1,-1,-1,-1,-1,-1,-1,-1,-1,-1,-1,-1,-1,-1,-1,-1,-1],"loss_changes":[4.310167E0,1.0547419E0,0E0,6.600549E-1,4.7524023E-1,1.2104445E0,1.2667594E0,2.5592504E0,8.077281E-1,2.1966524E0,9.4759494E-1,1.1325669E0,2.5541794E0,4.494695E-1,0E0,3.471047E-1,1.5953368E0,0E0,2.8536773E-1,3.4046268E-1,6.759845E-2,1.5257044E0,1.1967716E0,9.2079043E-1,0E0,5.75073E-1,2.7805787E-1,3.1981093E-1,5.159053E-1,3.5314393E0,2.6254624E-1,0E0,0E0,0E0,0E0,0E0,0E0,0E0,0E0,0E0,0E0,0E0,0E0,0E0,0E0,0E0,0E0,0E0,0E0,0E0,0E0,0E0,0E0,0E0,0E0],"parents":[2147483647,0,0,1,1,3,3,4,4,5,5,6,6,7,7,8,8,9,9,10,10,11,11,12,12,13,13,15,15,16,16,18,18,19,19,20,20,21,21,22,22,23,23,25,25,26,26,27,27,28,28,29,29,30,30],"right_children":[2,4,-1,6,8,10,12,14,16,18,20,22,24,26,-1,28,30,-1,32,34,36,38,40,42,-1,44,46,48,50,52,54,-1,-1,-1,-1,-1,-1,-1,-1,-1,-1,-1,-1,-1,-1,-1,-1,-1,-1,-1,-1,-1,-1,-1,-1],"split_conditions":[9.85E1,5E-1,4.8650208E-1,1.5E0,5E-1,5.3E1,3E0,5.5E0,6.1E1,2.5E1,7.4E1,3.5E0,5.5E0,7.9E1,4.3787158E-1,2.5E0,7.1E1,-5.1739313E-2,5E-1,6E1,4.5E0,1.5E0,4.5E0,4.5E1,2.1611482E-1,5.5E1,9E1,7.5E0,3.5E0,6.5E0,9.4E1,9.9040225E-2,3.3203736E-1,7.511902E-3,-1.8747559E-1,9.366456E-2,1.7761231E-3,-1.3114235E-1,1.0307522E-1,1.7975865E-1,-1.6046526E-2,-4.6474002E-2,-2.5432435E-1,7.5027466E-2,-7.223282E-2,2.2196962E-1,1.3417054E-2,-8.876576E-2,2.8025152E-2,1.2600118E-1,-1.1415319E-2,4.3430787E-1,-1.2362824E-1,-7.3412214E-3,1.0027467E-1],"split_indices":[1,2,0,3,4,1,5,3,1,1,1,3,3,1,0,3,1,0,3,1,5,5,3,1,0,1,1,5,3,5,1,0,0,0,0,0,0,0,0,0,0,0,0,0,0,0,0,0,0,0,0,0,0,0,0],"split_type":[0,0,0,0,0,0,0,0,0,0,0,0,0,0,0,0,0,0,0,0,0,0,0,0,0,0,0,0,0,0,0,0,0,0,0,0,0,0,0,0,0,0,0,0,0,0,0,0,0,0,0,0,0,0,0],"sum_hessian":[8E1,7.9E1,1E0,4.1E1,3.8E1,1.3E1,2.8E1,1.1E1,2.7E1,7E0,6E0,1.9E1,9E0,1E1,1E0,1.6E1,1.1E1,3E0,4E0,3E0,3E0,9E0,1E1,8E0,1E0,8E0,2E0,7E0,9E0,3E0,8E0,2E0,2E0,1E0,2E0,2E0,1E0,6E0,3E0,5E0,5E0,4E0,4E0,5E0,3E0,1E0,1E0,4E0,3E0,3E0,6E0,2E0,1E0,6E0,2E0],"tree_param":{"num_deleted":"0","num_feature":"6","num_nodes":"55","size_leaf_vector":"0"}},{"base_weights":[1.4256342E-1,1.09885015E-1,1.378418E0,-4.203038E-2,1.6466898E-1,4.757236E-2,-2.8889975E-1,8.943278E-1,1.2337694E-1,-4.9847983E-2,5.1881665E-1,-4.862709E-1,7.056173E-2,5.7925224E-2,4.2520753E-1,-1.0370697E-1,3.5208893E-1,1.9879913E-1,-9.295654E-2,-1.5904471E-1,1.3466644E-1,2.2244072E-1,8.2418317E-1,-3.1003395E-2,-3.599523E-1,4.3913268E-2,-6.2667847E-1,-1.5019008E-2,3.2271194E-1,2.4538675E-2,5.440979E-1,1.2406387E0,-4.3640137E-3],"categories":[],"categories_nodes":[],"categories_segments":[],"categories_sizes":[],"default_left":[1,1,0,1,1,1,1,0,1,1,0,0,1,1,1,1,0,0,0,1,1,1,1,0,0,0,0,0,0,0,0,0,0],"id":26,"left_children":[1,3,-1,5,7,9,11,-1,13,15,-1,-1,17,19,21,23,-1,-1,-1,25,27,29,31,-1,-1,-1,-1,-1,-1,-1,-1,-1,-1],"loss_changes":[3.1197789E0,6.727232E-1,0E0,5.0038743E-1,1.6672771E0,8.0631125E-1,4.5999604E-1,0E0,1.1014235E0,3.6123282E-1,0E0,0E0,8.1387155E-2,8.206438E-1,6.2565815E-1,2.4965957E-1,0E0,0E0,0E0,1.2613496E0,1.0181632E0,4.9590147E-1,1.0405736E0,0E0,0E0,0E0,0E0,0E0,0E0,0E0,0E0,0E0,0E0],"parents":[2147483647,0,0,1,1,3,3,4,4,5,5,6,6,8,8,9,9,12,12,13,13,14,14,15,15,19,19,20,20,21,21,22,22],"right_children":[2,4,-1,6,8,10,12,-1,14,16,-1,-1,18,20,22,24,-1,-1,-1,26,28,30,32,-1,-1,-1,-1,-1,-1,-1,-1,-1,-1],"split_conditions":[9.85E1,2.65E1,4.135254E-1,2.05E1,2.85E1,1.8E1,5E-1,2.6829836E-1,7.5E0,5.5E0,1.55645E-1,-1.4588128E-1,2.5E1,5E1,5.5E0,1.55E1,1.0562668E-1,5.963974E-2,-2.7886964E-2,4.5E1,3.5E0,7.6E1,5.3E1,-9.301019E-3,-1.079857E-1,1.3173981E-2,-1.8800355E-1,-4.5057028E-3,9.681359E-2,7.361603E-3,1.6322938E-1,3.7219164E-1,-1.3092041E-3],"split_indices":[1,1,0,1,1,1,2,0,5,3,0,0,1,1,3,1,0,0,0,1,3,1,1,0,0,0,0,0,0,0,0,0,0],"split_type":[0,0,0,0,0,0,0,0,0,0,0,0,0,0,0,0,0,0,0,0,0,0,0,0,0,0,0,0,0,0,0,0,0],"sum_hessian":[8E1,7.9E1,1E0,2.1E1,5.8E1,1.6E1,5E0,2E0,5.6E1,1.4E1,2E0,3E0,2E0,4.7E1,9E0,1.3E1,1E0,1E0,1E0,1.2E1,3.5E1,7E0,2E0,1.1E1,2E0,9E0,3E0,2E1,1.5E1,5E0,2E0,1E0,1E0],"tree_param":{"num_deleted":"0","num_feature":"6","num_nodes":"33","size_leaf_vector":"0"}},{"base_weights":[1.1425235E-1,8.638897E-2,1.1716614E0,-5.699412E-2,1.2598431E-1,-6.171468E-1,5.159664E-2,-6.1528824E-2,1.911277E-1,3.9713955E-1,-5.8693226E-2,-2.3826054E-1,5.6530345E-2,4.6689314E-1,8.323975E-2,-7.24659E-2,5.7783E-1,2.0147869E-1,-3.104804E-1,4.8439026E-2,-4.6539497E-1,-7.0525035E-2,2.2310181E-1,3.300438E-1,1.0545425E0,-1.5985489E-1,2.7355346E-1,-1.8488503E-1,2.966868E-1,2.9927444E-1,-4.6198526E-1,4.5318604E-3,6.156413E-2,-1.202418E-1,1.1388779E-1,3.1838226E-1,-7.901001E-2,6.8072206E-1,6.961441E-2,2.8103027E-1,-3.302358E-1,7.983246E-1,4.5408122E-2],"categories":[],"categories_nodes":[],"categories_segments":[],"categories_sizes":[],"default_left":[1,1,0,1,1,0,1,1,1,1,1,1,1,1,1,0,0,1,1,1,0,1,1,1,0,1,1,0,0,0,0,0,0,0,0,0,0,0,0,0,0,0,0],"id":27,"left_children":[1,3,-1,5,7,-1,9,11,13,15,17,19,21,23,25,-1,-1,27,29,31,-1,33,35,37,-1,39,41,-1,-1,-1,-1,-1,-1,-1,-1,-1,-1,-1,-1,-1,-1,-1,-1],"loss_changes":[2.2852836E0,4.613645E-1,0E0,1.126736E0,7.813201E-1,0E0,6.330675E-1,3.6817056E-1,1.3594688E0,3.812858E-1,9.141585E-1,4.7837865E-1,2.4853607E-1,6.9740725E-1,1.6629773E0,0E0,0E0,3.1234762E-1,7.8492624E-1,2.0261444E-3,0E0,7.787293E-2,1.6908215E-1,1.0485348E0,0E0,1.294701E0,2.3582313E0,0E0,0E0,0E0,0E0,0E0,0E0,0E0,0E0,0E0,0E0,0E0,0E0,0E0,0E0,0E0,0E0],"parents":[2147483647,0,0,1,1,3,3,4,4,6,6,7,7,8,8,9,9,10,10,11,11,12,12,13,13,14,14,17,17,18,18,19,19,21,21,22,22,23,23,25,25,26,26],"right_children":[2,4,-1,6,8,-1,10,12,14,16,18,20,22,24,26,-1,-1,28,30,32,-1,34,36,38,-1,40,42,-1,-1,-1,-1,-1,-1,-1,-1,-1,-1,-1,-1,-1,-1,-1,-1],"split_conditions":[9.85E1,1.5E0,3.5149843E-1,5E-1,2.65E1,-1.8514404E-1,1.5E0,4.5E0,4.65E1,3E1,5E-1,3.5E0,2.5E0,4.45E1,6.65E1,-2.173977E-2,1.7334901E-1,1E1,1.6E1,4.5E0,-1.396185E-1,8.5E0,2.5E1,5E-1,3.1636277E-1,3.5E0,7.65E1,-5.546551E-2,8.9006044E-2,8.9782335E-2,-1.3859558E-1,1.3595582E-3,1.8469239E-2,-3.607254E-2,3.4166336E-2,9.5514685E-2,-2.3703003E-2,2.0421663E-1,2.0884324E-2,8.4309086E-2,-9.907075E-2,2.3949738E-1,1.3622438E-2],"split_indices":[1,5,0,3,1,0,3,5,1,1,4,3,3,1,1,0,0,1,1,1,0,5,1,2,0,5,1,0,0,0,0,0,0,0,0,0,0,0,0,0,0,0,0],"split_type":[0,0,0,0,0,0,0,0,0,0,0,0,0,0,0,0,0,0,0,0,0,0,0,0,0,0,0,0,0,0,0,0,0,0,0,0,0,0,0,0,0,0,0],"sum_hessian":[8E1,7.9E1,1E0,1.7E1,6.2E1,2E0,1.5E1,1.6E1,4.6E1,3E0,1.2E1,6E0,1E1,1.2E1,3.4E1,1E0,2E0,6E0,6E0,3E0,3E0,6E0,4E0,1.1E1,1E0,1.5E1,1.9E1,1E0,5E0,1E0,5E0,1E0,2E0,5E0,1E0,3E0,1E0,4E0,7E0,4E0,1.1E1,5E0,1.4E1],"tree_param":{"num_deleted":"0","num_feature":"6","num_nodes":"43","size_leaf_vector":"0"}},{"base_weights":[9.272394E-2,6.8985224E-2,9.9591064E-1,3.206686E-2,2.4073847E-1,7.712297E-2,-1.0498776E-1,3.5585675E-3,4.1817856E-1,1.1364846E-2,3.455948E-1,4.4326622E-2,-3.8611856E-1,-7.259115E-2,4.853668E-2,8.963623E-1,2.2181484E-1,1.19853765E-1,-1.724205E-1,-7.6815285E-2,7.8336793E-1,-8.78489E-2,2.4694213E-1,-6.133194E-1,4.5522053E-2,1.190567E-1,-3.816223E-2,3.5932618E-1,-8.1309E-2,-1.347537E-1,2.1570405E-1,-5.083351E-1,1.453281E-1,3.3329263E-1,-3.651924E-1,9.9928284E-1,-4.0145874E-2,2.543831E-1,-1.7307962E-1,3.8601685E-1,2.5553385E-2,-1.7196655E-2,8.547974E-2,-6.716156E-2,9.918213E-3,5.4048157E-1,1.7891693E-1,4.5822144E-2,-1.6778564E-1],"categories":[],"categories_nodes":[],"categories_segments":[],"categories_sizes":[],"default_left":[1,1,0,1,1,1,1,1,1,1,1,1,1,0,1,0,1,1,1,1,1,1,1,0,1,0,1,1,1,0,0,0,0,0,0,0,0,0,0,0,0,0,0,0,0,0,0,0,0],"id":28,"left_children":[1,3,-1,5,7,9,11,13,15,17,19,21,23,-1,25,-1,27,29,31,33,35,37,39,-1,41,-1,43,45,47,-1,-1,-1,-1,-1,-1,-1,-1,-1,-1,-1,-1,-1,-1,-1,-1,-1,-1,-1,-1],"loss_changes":[1.6679769E0,4.9954817E-1,0E0,4.218319E-1,5.877051E-1,8.964368E-1,7.307221E-1,2.7498828E-2,5.523571E-1,8.5808945E-1,1.9093723E0,3.4306335E-1,6.163342E-1,0E0,3.5113513E-2,0E0,3.2099715E-1,6.879803E-1,1.7816577E0,8.313104E-1,9.291618E-1,2.7737796E-1,1.4408383E-1,0E0,8.988248E-3,0E0,4.8490246E-3,6.670928E-2,4.066992E-2,0E0,0E0,0E0,0E0,0E0,0E0,0E0,0E0,0E0,0E0,0E0,0E0,0E0,0E0,0E0,0E0,0E0,0E0,0E0,0E0],"parents":[2147483647,0,0,1,1,3,3,4,4,5,5,6,6,7,7,8,8,9,9,10,10,11,11,12,12,14,14,16,16,17,17,18,18,19,19,20,20,21,21,22,22,24,24,26,26,27,27,28,28],"right_children":[2,4,-1,6,8,10,12,14,16,18,20,22,24,-1,26,-1,28,30,32,34,36,38,40,-1,42,-1,44,46,48,-1,-1,-1,-1,-1,-1,-1,-1,-1,-1,-1,-1,-1,-1,-1,-1,-1,-1,-1,-1],"split_conditions":[9.85E1,7.5E0,2.987732E-1,4.5E0,4.3E1,3.5E0,7.75E1,1.8E1,4.8E1,6.25E1,6.45E1,4.5E1,9.1E1,-2.1777345E-2,3.5E0,2.689087E-1,4.5E0,1.5E0,7.85E1,5E-1,8.55E1,1.5E0,5E-1,-1.8399583E-1,9.45E1,3.571701E-2,3.3E1,1.5E0,6.3E1,-4.0426113E-2,6.471122E-2,-1.5250054E-1,4.3598432E-2,9.99878E-2,-1.09557725E-1,2.9978487E-1,-1.2043763E-2,7.6314926E-2,-5.192389E-2,1.1580506E-1,7.6660155E-3,-5.1589967E-3,2.5643922E-2,-2.014847E-2,2.975464E-3,1.6214448E-1,5.367508E-2,1.3746643E-2,-5.0335694E-2],"split_indices":[1,5,0,3,1,3,1,1,1,1,1,1,1,0,3,0,3,5,1,4,1,5,2,0,1,0,1,3,1,0,0,0,0,0,0,0,0,0,0,0,0,0,0,0,0,0,0,0,0],"split_type":[0,0,0,0,0,0,0,0,0,0,0,0,0,0,0,0,0,0,0,0,0,0,0,0,0,0,0,0,0,0,0,0,0,0,0,0,0,0,0,0,0,0,0,0,0,0,0,0,0],"sum_hessian":[8E1,7.9E1,1E0,6.6E1,1.3E1,5E1,1.6E1,6E0,7E0,4.1E1,9E0,1.1E1,5E0,2E0,4E0,1E0,6E0,2.6E1,1.5E1,5E0,4E0,7E0,4E0,3E0,2E0,2E0,2E0,4E0,2E0,7E0,1.9E1,7E0,8E0,2E0,3E0,3E0,1E0,1E0,6E0,2E0,2E0,1E0,1E0,1E0,1E0,1E0,3E0,1E0,1E0],"tree_param":{"num_deleted":"0","num_feature":"6","num_nodes":"49","size_leaf_vector":"0"}},{"base_weights":[7.62837E-2,5.607407E-2,8.465271E-1,2.5101477E-2,2.0029476E-1,4.7117945E-2,-1.22017756E-1,1.001997E-1,5.339101E-1,9.25446E-2,-1.0550662E-1,-2.625305E-1,4.2898558E-2,1.3962174E-2,3.542582E-1,7.619095E-1,3.895569E-2,1.7735973E-2,2.6226887E-1,2.788887E-2,-3.511963E-1,1.4717865E-1,-1.9966125E-2,-5.0359998E-2,1.2303543E-1,4.5941162E-1,7.197571E-2,-5.6479014E-2,2.5671768E-1,1.3297367E-1,6.920268E-1,-1.375014E-1,2.2077942E-1,-4.7532654E-1,7.266235E-2,1.2054443E-3,-2.742513E-2,9.381866E-3,-1.3314311E-1,1.5842693E-1,8.430481E-3],"categories":[],"categories_nodes":[],"categories_segments":[],"categories_sizes":[],"default_left":[1,1,0,1,1,1,1,1,1,1,1,0,1,1,1,0,0,1,1,1,1,0,1,1,1,0,0,0,0,0,0,0,0,0,0,0,0,0,0,0,0],"id":29,"left_children":[1,3,-1,5,7,9,11,13,15,17,19,-1,21,23,25,-1,-1,27,29,31,33,-1,35,37,39,-1,-1,-1,-1,-1,-1,-1,-1,-1,-1,-1,-1,-1,-1,-1,-1],"loss_changes":[1.2134049E0,3.523234E-1,0E0,2.2276531E-1,4.140079E-1,4.1882423E-1,2.1981779E-1,2.5796634E-1,3.0886722E-1,5.7940304E-1,4.6862894E-1,0E0,3.5716265E-2,7.6354355E-2,5.598241E-2,0E0,0E0,5.9978795E-1,6.8589765E-1,3.4937966E-1,2.9760677E-1,0E0,6.6473475E-4,3.586845E-2,1.4888547E-2,0E0,0E0,0E0,0E0,0E0,0E0,0E0,0E0,0E0,0E0,0E0,0E0,0E0,0E0,0E0,0E0],"parents":[2147483647,0,0,1,1,3,3,4,4,5,5,6,6,7,7,8,8,9,9,10,10,12,12,13,13,14,14,17,17,18,18,19,19,20,20,22,22,23,23,24,24],"right_children":[2,4,-1,6,8,10,12,14,16,18,20,-1,22,24,26,-1,-1,28,30,32,34,-1,36,38,40,-1,-1,-1,-1,-1,-1,-1,-1,-1,-1,-1,-1,-1,-1,-1,-1],"split_conditions":[9.85E1,7.5E0,2.5395814E-1,6.5E0,5.5E0,4.5E0,3.5E0,7.6E1,5.3E1,5E-1,7.4E1,-7.8759156E-2,3.9E1,8.5E0,9.1E1,2.2857286E-1,1.1686707E-2,7.3E1,3.5E0,3.5E1,9.15E1,4.4153597E-2,6.4E1,3.5E0,3.5E0,1.3782349E-1,2.1592714E-2,-1.6943704E-2,7.701531E-2,3.9892104E-2,2.0760804E-1,-4.1250423E-2,6.623383E-2,-1.4259797E-1,2.1798708E-2,3.616333E-4,-8.227539E-3,2.81456E-3,-3.9942935E-2,4.752808E-2,2.5291443E-3],"split_indices":[1,5,0,5,3,3,3,1,1,2,1,0,1,5,1,0,0,1,3,1,1,0,1,3,3,0,0,0,0,0,0,0,0,0,0,0,0,0,0,0,0],"split_type":[0,0,0,0,0,0,0,0,0,0,0,0,0,0,0,0,0,0,0,0,0,0,0,0,0,0,0,0,0,0,0,0,0,0,0,0,0,0,0,0,0],"sum_hessian":[8E1,7.9E1,1E0,6.6E1,1.3E1,5.8E1,8E0,1.1E1,2E0,4.5E1,1.3E1,4E0,4E0,9E0,2E0,1E0,1E0,3.2E1,1.3E1,9E0,4E0,1E0,3E0,6E0,3E0,1E0,1E0,2.5E1,7E0,1.1E1,2E0,5E0,4E0,3E0,1E0,1E0,2E0,4E0,2E0,2E0,1E0],"tree_param":{"num_deleted":"0","num_feature":"6","num_nodes":"41","size_leaf_vector":"0"}},{"base_weights":[6.371737E-2,4.652525E-2,7.1954346E-1,2.0097205E-2,1.6967909E-1,6.1882704E-2,-6.818598E-2,-6.228856E-4,2.9748344E-1,1.9830553E-2,6.5802E-1,-4.1004944E-1,7.3740105E-3,-5.9950512E-2,3.5098266E-2,6.4762115E-1,1.5494646E-1,4.768746E-2,-2.706604E-1,-4.6854654E-1,-1.1727905E-1,2.6088968E-1,-1.0180228E-1,7.846578E-2,-1.9968668E-2,2.5274047E-1,-5.9692383E-2,1.94134E-2,5.8932495E-1,-3.1730142E-1,-6.536865E-2,-7.2631836E-2,3.4212035E-1,-1.5699005E-1,1.5288289E-1,-3.7117004E-2,7.1640015E-3,3.9050293E-1,1.2067413E-1,3.3111572E-2,-1.2265015E-1],"categories":[],"categories_nodes":[],"categories_segments":[],"categories_sizes":[],"default_left":[1,1,0,1,1,1,1,1,1,1,0,1,1,0,1,0,1,1,1,0,0,1,1,0,1,1,1,0,0,0,0,0,0,0,0,0,0,0,0,0,0],"id":30,"left_children":[1,3,-1,5,7,9,11,13,15,17,-1,19,21,-1,23,-1,25,27,29,-1,-1,31,33,-1,35,37,39,-1,-1,-1,-1,-1,-1,-1,-1,-1,-1,-1,-1,-1,-1],"loss_changes":[8.798014E-1,2.569672E-1,0E0,2.5137964E-1,3.049E-1,1.1401185E0,5.713101E-1,1.6938917E-2,2.9891396E-1,3.68963E-1,0E0,1.3554156E-2,5.5243933E-1,0E0,1.3507437E-2,0E0,1.6201946E-1,6.164452E-1,1.7558515E-2,0E0,0E0,1.874018E-1,2.207782E-1,0E0,1.6617464E-3,4.3845326E-2,2.1589328E-2,0E0,0E0,0E0,0E0,0E0,0E0,0E0,0E0,0E0,0E0,0E0,0E0,0E0,0E0],"parents":[2147483647,0,0,1,1,3,3,4,4,5,5,6,6,7,7,8,8,9,9,11,11,12,12,14,14,16,16,17,17,18,18,21,21,22,22,24,24,25,25,26,26],"right_children":[2,4,-1,6,8,10,12,14,16,18,-1,20,22,-1,24,-1,26,28,30,-1,-1,32,34,-1,36,38,40,-1,-1,-1,-1,-1,-1,-1,-1,-1,-1,-1,-1,-1,-1],"split_conditions":[9.85E1,7.5E0,2.1586305E-1,6.85E1,4.3E1,6.6E1,7.3E1,1.8E1,4.8E1,6.25E1,1.9740601E-1,7.15E1,5E-1,-1.7985154E-2,3.5E0,1.9428636E-1,4.5E0,6.15E1,6.45E1,-1.4056396E-1,-3.5183717E-2,5E-1,9.4E1,2.3539735E-2,3.3E1,1.5E0,6.3E1,5.82402E-3,1.767975E-1,-9.519043E-2,-1.9610597E-2,-2.178955E-2,1.0263611E-1,-4.7097016E-2,4.586487E-2,-1.1135101E-2,2.1492005E-3,1.1715088E-1,3.620224E-2,9.933472E-3,-3.6795046E-2],"split_indices":[1,5,0,1,1,1,1,1,1,1,0,1,4,0,3,0,3,1,1,0,0,5,1,0,1,3,1,0,0,0,0,0,0,0,0,0,0,0,0,0,0],"split_type":[0,0,0,0,0,0,0,0,0,0,0,0,0,0,0,0,0,0,0,0,0,0,0,0,0,0,0,0,0,0,0,0,0,0,0,0,0,0,0,0,0],"sum_hessian":[8E1,7.9E1,1E0,6.6E1,1.3E1,4.5E1,2.1E1,6E0,7E0,4.3E1,2E0,3E0,1.8E1,2E0,4E0,1E0,6E0,4E1,3E0,2E0,1E0,5E0,1.3E1,2E0,2E0,4E0,2E0,3.9E1,1E0,2E0,1E0,1E0,4E0,1.1E1,2E0,1E0,1E0,1E0,3E0,1E0,1E0],"tree_param":{"num_deleted":"0","num_feature":"6","num_nodes":"41","size_leaf_vector":"0"}},{"base_weights":[5.327053E-2,3.864596E-2,6.1161804E-1,1.6589066E-2,1.4144352E-1,8.71711E-2,-2.4832793E-2,6.85819E-2,3.857422E-1,2.068702E-2,5.678253E-1,-3.142395E-1,4.016961E-2,7.2982786E-3,2.5E-1,5.504761E-1,2.8137207E-2,7.908869E-2,-2.7649307E-1,-4.486084E-3,-3.5784912E-1,5.9233093E-1,7.469831E-3,-3.7099566E-2,8.316994E-2,3.3192444E-1,4.307556E-2,-9.748565E-3,5.857493E-1,-1.3471985E-1,-4.2015687E-1,-6.0185242E-2,9.157181E-2,-9.520467E-2,5.183411E-3,1.0683441E-1,6.088257E-3],"categories":[],"categories_nodes":[],"categories_segments":[],"categories_sizes":[],"default_left":[1,1,0,1,1,1,1,1,1,1,0,1,1,1,1,0,0,1,0,0,1,0,1,1,1,0,0,0,0,0,0,0,0,0,0,0,0],"id":31,"left_children":[1,3,-1,5,7,9,11,13,15,17,-1,19,21,23,25,-1,-1,27,-1,-1,29,-1,31,33,35,-1,-1,-1,-1,-1,-1,-1,-1,-1,-1,-1,-1],"loss_changes":[6.377764E-1,1.7904517E-1,0E0,1.980485E-1,2.2274503E-1,7.871497E-1,8.215445E-1,1.3159092E-1,1.612401E-1,4.2105117E-1,0E0,1.0646045E-1,6.4557534E-1,3.6770947E-2,3.6558688E-2,0E0,0E0,9.0591705E-1,0E0,0E0,4.0715337E-2,0E0,2.0465866E-1,1.7691482E-2,6.645955E-3,0E0,0E0,0E0,0E0,0E0,0E0,0E0,0E0,0E0,0E0,0E0,0E0],"parents":[2147483647,0,0,1,1,3,3,4,4,5,5,6,6,7,7,8,8,9,9,11,11,12,12,13,13,14,14,17,17,20,20,22,22,23,23,24,24],"right_children":[2,4,-1,6,8,10,12,14,16,18,-1,20,22,24,26,-1,-1,28,-1,-1,30,-1,32,34,36,-1,-1,-1,-1,-1,-1,-1,-1,-1,-1,-1,-1],"split_conditions":[9.85E1,7.5E0,1.8348542E-1,3.75E1,5.5E0,3.45E1,5E1,7.6E1,5.3E1,2.85E1,1.703476E-1,3.95E1,5.15E1,8.5E0,9.1E1,1.6514283E-1,8.441162E-3,2.6E1,-8.2947925E-2,-1.3458253E-3,5E-1,1.7769928E-1,3.5E0,5E-1,3.5E0,9.957734E-2,1.2922669E-2,-2.9245696E-3,1.757248E-1,-4.0415958E-2,-1.2604706E-1,-1.8055573E-2,2.7471544E-2,-2.8561404E-2,1.5550234E-3,3.2050326E-2,1.8264771E-3],"split_indices":[1,5,0,1,3,1,1,1,1,1,0,1,1,5,1,0,0,1,0,0,4,0,3,4,3,0,0,0,0,0,0,0,0,0,0,0,0],"split_type":[0,0,0,0,0,0,0,0,0,0,0,0,0,0,0,0,0,0,0,0,0,0,0,0,0,0,0,0,0,0,0,0,0,0,0,0,0],"sum_hessian":[8E1,7.9E1,1E0,6.6E1,1.3E1,2.4E1,4.2E1,1.1E1,2E0,2.2E1,2E0,7E0,3.5E1,9E0,2E0,1E0,1E0,1.9E1,3E0,1E0,6E0,1E0,3.4E1,6E0,3E0,1E0,1E0,1.7E1,2E0,2E0,4E0,1.9E1,1.5E1,2E0,4E0,2E0,1E0],"tree_param":{"num_deleted":"0","num_feature":"6","num_nodes":"37","size_leaf_vector":"0"}},{"base_weights":[4.662607E-2,3.0754874E-2,4.4902548E-1,5.0010033E-2,-9.282338E-2,-7.496145E-4,1.02284655E-1,-3.847351E-1,1.47942435E-2,1.089646E-1,-5.3382453E-2,5.486242E-2,1.9645275E-1,1.4081573E-1,-7.168579E-2,2.5461054E-1,-1.4586182E-1,-1.4507991E-1,4.242134E-2,-1.391542E-1,1.4293715E-1,3.5829163E-1,1.8717448E-3,2.526245E-1,1.9337973E-2,-1.3838959E-1,4.114787E-2,-8.078289E-2,4.7200316E-1,-2.7815756E-1,3.5054523E-2,-2.813147E-1,-2.476883E-2,2.3644868E-1,-7.00851E-2,-3.237877E-2,-2.3783493E-1,3.4260255E-1,5.514761E-2,6.8760175E-1,2.1736145E-2,-1.1060791E-1,2.82135E-1,-2.7252197E-2,5.6259155E-2],"categories":[],"categories_nodes":[],"categories_segments":[],"categories_sizes":[],"default_left":[1,1,0,1,1,1,1,0,1,1,1,1,1,1,1,1,1,1,1,1,1,1,1,0,1,0,0,0,0,0,0,0,0,0,0,0,0,0,0,0,0,0,0,0,0],"id":32,"left_children":[1,3,-1,5,7,9,11,-1,13,15,17,19,21,23,25,27,29,31,33,35,37,39,41,-1,43,-1,-1,-1,-1,-1,-1,-1,-1,-1,-1,-1,-1,-1,-1,-1,-1,-1,-1,-1,-1],"loss_changes":[5.0350153E-1,1.9262406E-1,0E0,1.8316415E-1,3.5125515E-1,2.1370134E-1,1.4105463E-1,0E0,1.0817958E-1,4.8251116E-1,2.2577858E-1,4.3000138E-1,3.4572792E-1,4.944387E-2,5.0853036E-2,6.214263E-1,1.2942296E-1,2.0610937E-1,3.0035278E-1,7.6592624E-2,2.7909133E-1,6.500408E-1,2.2034985E-1,0E0,6.6936775E-3,0E0,0E0,0E0,0E0,0E0,0E0,0E0,0E0,0E0,0E0,0E0,0E0,0E0,0E0,0E0,0E0,0E0,0E0,0E0,0E0],"parents":[2147483647,0,0,1,1,3,3,4,4,5,5,6,6,8,8,9,9,10,10,11,11,12,12,13,13,14,14,15,15,16,16,17,17,18,18,19,19,20,20,21,21,22,22,24,24],"right_children":[2,4,-1,6,8,10,12,-1,14,16,18,20,22,24,26,28,30,32,34,36,38,40,42,-1,44,-1,-1,-1,-1,-1,-1,-1,-1,-1,-1,-1,-1,-1,-1,-1,-1,-1,-1,-1,-1],"split_conditions":[9.75E1,8.65E1,1.3470764E-1,5E-1,8.85E1,1.5E0,6.1E1,-1.15420535E-1,2.5E0,5.3E1,3.5E0,1.5E0,6.5E0,9.2E1,9.45E1,2.5E1,5E-1,1.5E0,5E-1,2.7E1,5E-1,7E1,8.5E1,7.578736E-2,9.5E1,-4.1516878E-2,1.2344361E-2,-2.4234869E-2,1.4160095E-1,-8.344727E-2,1.0516358E-2,-8.439441E-2,-7.430649E-3,7.093461E-2,-2.1025531E-2,-9.713631E-3,-7.1350485E-2,1.0278077E-1,1.6544284E-2,2.0628053E-1,6.5208436E-3,-3.3182375E-2,8.46405E-2,-8.17566E-3,1.6877748E-2],"split_indices":[1,1,0,2,1,3,1,0,3,1,3,3,5,1,1,1,3,5,4,1,4,1,1,0,1,0,0,0,0,0,0,0,0,0,0,0,0,0,0,0,0,0,0,0,0],"split_type":[0,0,0,0,0,0,0,0,0,0,0,0,0,0,0,0,0,0,0,0,0,0,0,0,0,0,0,0,0,0,0,0,0,0,0,0,0,0,0,0,0,0,0,0,0],"sum_hessian":[8E1,7.8E1,2E0,6.8E1,1E1,3.5E1,3.3E1,2E0,8E0,1.1E1,2.4E1,2.3E1,1E1,3E0,5E0,7E0,4E0,1.2E1,1.2E1,7E0,1.6E1,5E0,5E0,1E0,2E0,3E0,2E0,3E0,4E0,2E0,2E0,5E0,7E0,4E0,8E0,4E0,3E0,4E0,1.2E1,2E0,3E0,4E0,1E0,1E0,1E0],"tree_param":{"num_deleted":"0","num_feature":"6","num_nodes":"45","size_leaf_vector":"0"}},{"base_weights":[3.732327E-2,2.6476562E-2,4.525299E-1,1.1373135E-2,9.6866064E-2,3.665937E-2,-6.515458E-2,-1.7599924E-2,1.8491554E-1,7.7590714E-3,1.5437469E-1,2.0101674E-1,-1.1404521E-1,1.008606E-2,-5.7876587E-2,4.1651154E-1,9.232875E-2,6.7389E-2,-9.3351364E-2,-5.554962E-2,3.7540895E-1,5.5610657E-2,2.4591446E-1,-1.5332031E-1,3.2291412E-2,-3.2483418E-2,4.9293518E-2,1.752243E-1,-1.3648987E-2,1.4901551E-2,2.4861145E-1,-2.5597382E-1,6.15743E-2,3.85746E-1,-2.2095795E-1,4.9662018E-1,-5.4718018E-2,-2.9517365E-1,-7.32388E-2,1.1537933E-1,-3.3864338E-2,7.376099E-2,2.3980713E-1,-7.337952E-2,3.072103E-2],"categories":[],"categories_nodes":[],"categories_segments":[],"categories_sizes":[],"default_left":[1,1,0,1,1,1,1,1,1,1,1,1,1,1,0,0,1,1,1,1,1,0,0,1,1,0,0,1,1,0,0,0,0,0,0,0,0,0,0,0,0,0,0,0,0],"id":33,"left_children":[1,3,-1,5,7,9,11,13,15,17,19,21,23,25,-1,-1,27,29,31,33,35,-1,-1,37,39,-1,-1,41,43,-1,-1,-1,-1,-1,-1,-1,-1,-1,-1,-1,-1,-1,-1,-1,-1],"loss_changes":[3.5281217E-1,8.394815E-2,0E0,1.3204008E-1,1.4435588E-1,1.723046E-1,2.4415079E-1,8.389439E-3,1.3308585E-1,2.5951755E-1,4.8485845E-1,5.9097484E-3,9.116174E-2,9.946428E-3,0E0,0E0,6.388722E-2,2.5311667E-1,4.1887164E-1,5.231975E-1,2.878552E-1,0E0,0E0,1.1469981E-1,2.589422E-2,0E0,0E0,8.5227415E-3,1.2855272E-2,0E0,0E0,0E0,0E0,0E0,0E0,0E0,0E0,0E0,0E0,0E0,0E0,0E0,0E0,0E0,0E0],"parents":[2147483647,0,0,1,1,3,3,4,4,5,5,6,6,7,7,8,8,9,9,10,10,11,11,12,12,13,13,16,16,17,17,18,18,19,19,20,20,23,23,24,24,27,27,28,28],"right_children":[2,4,-1,6,8,10,12,14,16,18,20,22,24,26,-1,-1,28,30,32,34,36,-1,-1,38,40,-1,-1,42,44,-1,-1,-1,-1,-1,-1,-1,-1,-1,-1,-1,-1,-1,-1,-1,-1],"split_conditions":[9.85E1,7.5E0,1.3575898E-1,4.5E0,4.3E1,3.5E0,1.4E1,3.5E0,4.8E1,6.25E1,6.45E1,7E0,6.5E0,1.8E1,-1.7362976E-2,1.2495346E-1,3.5E0,5E1,7.85E1,5E-1,8.55E1,1.6683199E-2,7.377434E-2,3.5E1,4.9E1,-9.745026E-3,1.4788056E-2,7.1E1,1E0,4.4704657E-3,7.458344E-2,-7.679215E-2,1.847229E-2,1.157238E-1,-6.628739E-2,1.4898606E-1,-1.6415406E-2,-8.8552095E-2,-2.197164E-2,3.4613803E-2,-1.0159302E-2,2.2128297E-2,7.194214E-2,-2.2013856E-2,9.2163095E-3],"split_indices":[1,5,0,3,1,3,1,3,1,1,1,1,5,1,0,0,3,1,1,5,1,0,0,1,1,0,0,1,4,0,0,0,0,0,0,0,0,0,0,0,0,0,0,0,0],"split_type":[0,0,0,0,0,0,0,0,0,0,0,0,0,0,0,0,0,0,0,0,0,0,0,0,0,0,0,0,0,0,0,0,0,0,0,0,0,0,0,0,0,0,0,0,0],"sum_hessian":[8E1,7.9E1,1E0,6.6E1,1.3E1,5E1,1.6E1,6E0,7E0,4.1E1,9E0,2E0,1.4E1,4E0,2E0,1E0,6E0,2.6E1,1.5E1,5E0,4E0,1E0,1E0,1.1E1,3E0,2E0,2E0,3E0,3E0,2.1E1,5E0,7E0,8E0,1E0,4E0,3E0,1E0,3E0,8E0,1E0,2E0,2E0,1E0,1E0,2E0],"tree_param":{"num_deleted":"0","num_feature":"6","num_nodes":"45","size_leaf_vector":"0"}},{"base_weights":[3.2753285E-2,2.3546612E-2,3.8464355E-1,3.616025E-2,-5.094401E-2,1.5033351E-3,7.179227E-2,-2.931417E-1,2.6809692E-2,7.6566696E-2,-3.4587212E-2,3.602044E-2,1.4331332E-1,1.1550903E-1,-5.1574707E-2,-9.377289E-2,2.1163395E-1,-7.849097E-2,1.1752319E-1,-1.179533E-1,1.0635982E-1,2.4977112E-1,1.2969971E-2,4.1300454E-3,1.8838501E-1,-1.0523224E-1,3.7160236E-2,-2.140747E-1,2.538681E-1,-7.290395E-2,3.400299E-1,5.8785863E-2,-1.7490768E-1,-1.2763469E-1,2.720108E-1,-2.4562072E-2,-2.0520401E-1,-8.04863E-2,1.521473E-1,4.7556558E-1,1.7982483E-2,-6.59729E-2,2.0384216E-1,-3.239441E-2,3.8589478E-2],"categories":[],"categories_nodes":[],"categories_segments":[],"categories_sizes":[],"default_left":[1,1,0,1,1,1,1,0,1,1,1,1,1,1,1,1,1,1,1,1,1,1,1,1,0,0,0,0,0,0,0,0,0,0,0,0,0,0,0,0,0,0,0,0,0],"id":34,"left_children":[1,3,-1,5,7,9,11,-1,13,15,17,19,21,23,25,27,29,31,33,35,37,39,41,43,-1,-1,-1,-1,-1,-1,-1,-1,-1,-1,-1,-1,-1,-1,-1,-1,-1,-1,-1,-1,-1],"loss_changes":[2.5336176E-1,7.700995E-2,0E0,8.5099876E-2,2.3384024E-1,1.0017502E-1,8.182472E-2,0E0,7.5483784E-2,2.9593313E-1,1.7617998E-1,2.7247554E-1,1.4939721E-1,3.980623E-2,3.2478243E-2,3.052778E-1,2.8052413E-1,2.749977E-1,2.6196113E-1,6.014736E-2,1.5768436E-1,3.0546775E-1,1.0385605E-1,5.025919E-3,0E0,0E0,0E0,0E0,0E0,0E0,0E0,0E0,0E0,0E0,0E0,0E0,0E0,0E0,0E0,0E0,0E0,0E0,0E0,0E0,0E0],"parents":[2147483647,0,0,1,1,3,3,4,4,5,5,6,6,8,8,9,9,10,10,11,11,12,12,13,13,14,14,15,15,16,16,17,17,18,18,19,19,20,20,21,21,22,22,23,23],"right_children":[2,4,-1,6,8,10,12,-1,14,16,18,20,22,24,26,28,30,32,34,36,38,40,42,44,-1,-1,-1,-1,-1,-1,-1,-1,-1,-1,-1,-1,-1,-1,-1,-1,-1,-1,-1,-1,-1],"split_conditions":[9.85E1,8.65E1,1.1539307E-1,5E-1,8.85E1,1.5E0,6.1E1,-8.794251E-2,2.5E0,5E-1,6.5E1,1.5E0,6.5E0,1.5E0,9.45E1,1.5E0,3E1,2E1,1.5E0,2.7E1,4.5E0,7E1,8.5E1,9.5E1,5.6515504E-2,-3.1569675E-2,1.1148071E-2,-6.422241E-2,7.616043E-2,-2.1871187E-2,1.02008976E-1,1.7635759E-2,-5.247231E-2,-3.8290408E-2,8.1603244E-2,-7.368622E-3,-6.1561204E-2,-2.414589E-2,4.564419E-2,1.4266968E-1,5.394745E-3,-1.9791871E-2,6.1152652E-2,-9.718323E-3,1.1576843E-2],"split_indices":[1,1,0,2,1,3,1,0,3,3,1,3,5,3,1,4,1,1,5,1,5,1,1,1,0,0,0,0,0,0,0,0,0,0,0,0,0,0,0,0,0,0,0,0,0],"split_type":[0,0,0,0,0,0,0,0,0,0,0,0,0,0,0,0,0,0,0,0,0,0,0,0,0,0,0,0,0,0,0,0,0,0,0,0,0,0,0,0,0,0,0,0,0],"sum_hessian":[8E1,7.9E1,1E0,6.8E1,1.1E1,3.5E1,3.3E1,2E0,9E0,1.1E1,2.4E1,2.3E1,1E1,4E0,5E0,5E0,6E0,1.9E1,5E0,7E0,1.6E1,5E0,5E0,2E0,2E0,3E0,2E0,4E0,1E0,2E0,4E0,8E0,1.1E1,2E0,3E0,4E0,3E0,3E0,1.3E1,2E0,3E0,4E0,1E0,1E0,1E0],"tree_param":{"num_deleted":"0","num_feature":"6","num_nodes":"45","size_leaf_vector":"0"}},{"base_weights":[2.6727924E-2,1.888827E-2,3.2695007E-1,-6.318079E-2,2.6396314E-2,-1.09951735E-1,-6.146431E-4,2.3594761E-1,1.4218828E-2,3.8451195E-2,-2.6453653E-2,-1.3544083E-2,3.236262E-1,6.59969E-2,-1.5356147E-2,1.7336689E-1,-1.1944771E-2,-9.713223E-2,4.0683202E-2,-3.0136108E-2,2.2193824E-1,-1.341507E-1,1.6434152E-1,-2.9229227E-2,-2.814148E-1,1.6233943E-1,-6.0705185E-2],"categories":[],"categories_nodes":[],"categories_segments":[],"categories_sizes":[],"default_left":[1,1,0,1,1,0,1,1,1,0,0,0,0,1,1,1,1,1,1,0,0,0,0,0,0,0,0],"id":35,"left_children":[1,3,-1,5,7,-1,9,11,13,-1,-1,-1,-1,15,17,19,21,23,25,-1,-1,-1,-1,-1,-1,-1,-1],"loss_changes":[1.844691E-1,5.096198E-2,0E0,2.0416364E-2,1.8547888E-1,0E0,5.054865E-3,9.188354E-2,1.0973826E-1,0E0,0E0,0E0,0E0,2.1965435E-1,2.1475486E-1,1.15416884E-1,3.6673823E-1,2.2952792E-1,3.5522163E-1,0E0,0E0,0E0,0E0,0E0,0E0,0E0,0E0],"parents":[2147483647,0,0,1,1,3,3,4,4,6,6,7,7,8,8,13,13,14,14,15,15,16,16,17,17,18,18],"right_children":[2,4,-1,6,8,-1,10,12,14,-1,-1,-1,-1,16,18,20,22,24,26,-1,-1,-1,-1,-1,-1,-1,-1],"split_conditions":[9.85E1,7.5E0,9.808502E-2,3.5E0,1.2E1,-3.2985523E-2,4.5E0,2E0,5E-1,1.1535359E-2,-7.936097E-3,-4.063225E-3,9.708786E-2,4.75E1,4.9E1,5E-1,7.35E1,3.95E1,6.95E1,-9.0408325E-3,6.658147E-2,-4.0245213E-2,4.930246E-2,-8.768769E-3,-8.442444E-2,4.8701834E-2,-1.8211557E-2],"split_indices":[1,1,0,5,1,0,1,3,4,0,0,0,0,1,1,3,1,1,1,0,0,0,0,0,0,0,0],"split_type":[0,0,0,0,0,0,0,0,0,0,0,0,0,0,0,0,0,0,0,0,0,0,0,0,0,0,0],"sum_hessian":[8E1,7.9E1,1E0,6E0,7.3E1,3E0,3E0,3E0,7E1,1E0,2E0,1E0,2E0,2.5E1,4.5E1,1E1,1.5E1,1.8E1,2.7E1,2E0,8E0,9E0,6E0,1.4E1,4E0,1.2E1,1.5E1],"tree_param":{"num_deleted":"0","num_feature":"6","num_nodes":"27","size_leaf_vector":"0"}},{"base_weights":[2.075585E-2,1.406759E-2,2.7790833E-1,2.4247473E-2,-4.5639038E-2,-1.77233E-2,4.2978924E-2,-1.9446564E-1,2.557712E-2,1.8284099E-1,-4.692178E-2,3.2429504E-1,2.3697894E-2,-2.2236125E-1,-5.5389404E-2,1.2402344E-1,-2.0268032E-2,-1.1512756E-2,2.8577423E-1,4.6587657E-2,-1.2766474E-1,-1.0307566E-1,4.1672125E-2,1.5258789E-1,3.3447266E-2,-8.319092E-2,4.7721863E-2,-4.8424993E-2,2.0121288E-1,-2.0390828E-1,-3.0143738E-2,-2.485199E-1,-2.4282837E-2,8.988734E-2,-8.527483E-3,-1.8432617E-2,-9.863281E-2,8.148193E-3,5.819702E-2],"categories":[],"categories_nodes":[],"categories_segments":[],"categories_sizes":[],"default_left":[1,1,0,1,1,1,1,1,1,1,1,0,1,0,0,1,1,0,0,1,1,1,1,0,0,1,1,0,0,0,0,0,0,0,0,0,0,0,0],"id":36,"left_children":[1,3,-1,5,7,9,11,13,15,17,19,-1,21,-1,-1,23,25,-1,-1,27,29,31,33,-1,-1,35,37,-1,-1,-1,-1,-1,-1,-1,-1,-1,-1,-1,-1],"loss_changes":[1.3540262E-1,4.973115E-2,0E0,5.5007692E-2,1.3216019E-1,1.37415E-1,2.5267E-1,3.2019913E-3,4.313329E-2,6.3306436E-2,1.5695217E-1,0E0,1.0911361E-1,0E0,0E0,2.6581287E-3,3.391687E-2,0E0,0E0,1.5665726E-1,7.564226E-2,6.272501E-2,1.000023E-1,0E0,0E0,2.1819025E-3,1.1839615E-3,0E0,0E0,0E0,0E0,0E0,0E0,0E0,0E0,0E0,0E0,0E0,0E0],"parents":[2147483647,0,0,1,1,3,3,4,4,5,5,6,6,7,7,8,8,9,9,10,10,12,12,15,15,16,16,19,19,20,20,21,21,22,22,25,25,26,26],"right_children":[2,4,-1,6,8,10,12,14,16,18,20,-1,22,-1,-1,24,26,-1,-1,28,30,32,34,-1,-1,36,38,-1,-1,-1,-1,-1,-1,-1,-1,-1,-1,-1,-1],"split_conditions":[9.85E1,8.65E1,8.33725E-2,2.65E1,9E1,5E-1,2.85E1,8.85E1,2.5E0,1.4E1,1.35E1,9.728852E-2,5E-1,-6.670838E-2,-1.6616821E-2,9.3E1,9.5E1,-3.453827E-3,8.5732274E-2,7.5E0,5E-1,5E-1,4.5E0,4.5776367E-2,1.003418E-2,5E-1,5E-1,-1.4527499E-2,6.0363866E-2,-6.1172485E-2,-9.043122E-3,-7.455597E-2,-7.2848513E-3,2.6966205E-2,-2.5582449E-3,-5.5297855E-3,-2.9589845E-2,2.4444582E-3,1.7459108E-2],"split_indices":[1,1,0,1,1,5,1,1,5,1,1,0,5,0,0,1,1,0,0,1,2,3,5,0,0,2,2,0,0,0,0,0,0,0,0,0,0,0,0],"split_type":[0,0,0,0,0,0,0,0,0,0,0,0,0,0,0,0,0,0,0,0,0,0,0,0,0,0,0,0,0,0,0,0,0,0,0,0,0,0,0],"sum_hessian":[8E1,7.9E1,1E0,6.8E1,1.1E1,2.1E1,4.7E1,3E0,8E0,2E0,1.9E1,2E0,4.5E1,2E0,1E0,2E0,6E0,1E0,1E0,9E0,1E1,5E0,4E1,1E0,1E0,3E0,3E0,6E0,3E0,5E0,5E0,1E0,4E0,2E1,2E1,1E0,2E0,1E0,2E0],"tree_param":{"num_deleted":"0","num_feature":"6","num_nodes":"39","size_leaf_vector":"0"}},{"base_weights":[1.6237471E-2,1.0534907E-2,2.3622131E-1,3.884341E-2,-6.323721E-3,2.6885138E-3,2.731781E-1,-9.992811E-2,1.3414959E-2,2.3469448E-2,-1.2266922E-1,3.5280356E-1,1.7150879E-2,-1.8722153E-1,2.992096E-1,1.652832E-1,-2.1072389E-3,-9.774468E-3,2.5943503E-1,-1.0570272E-1,-2.8785196E-1,1.6021729E-2,3.065338E-1,-3.521174E-2,3.6335193E-2,1.5541458E-1,-3.4064103E-2,-1.8249512E-2,-1.19543456E-1,-1.1550903E-2,3.5583496E-2,-7.910156E-2,7.013811E-2,1.00588284E-1,-8.8182725E-2],"categories":[],"categories_nodes":[],"categories_segments":[],"categories_sizes":[],"default_left":[1,1,0,1,1,1,1,1,1,1,0,0,0,1,0,1,1,1,0,1,0,1,0,1,1,0,0,0,0,0,0,0,0,0,0],"id":37,"left_children":[1,3,-1,5,7,9,11,13,15,17,-1,-1,-1,19,-1,21,23,25,-1,27,-1,29,-1,31,33,-1,-1,-1,-1,-1,-1,-1,-1,-1,-1],"loss_changes":[9.9123664E-2,3.8425036E-2,0E0,2.5343594E-1,9.556952E-2,7.321535E-2,7.549423E-2,3.6959732E-1,1.0171344E-1,1.9080192E-1,0E0,0E0,0E0,3.5199434E-2,0E0,7.942191E-2,5.218412E-2,9.3566455E-2,0E0,5.0808936E-3,0E0,2.0291298E-3,0E0,1.07271336E-1,1.6088271E-1,0E0,0E0,0E0,0E0,0E0,0E0,0E0,0E0,0E0,0E0],"parents":[2147483647,0,0,1,1,3,3,4,4,5,5,6,6,7,7,8,8,9,9,13,13,15,15,16,16,17,17,19,19,21,21,23,23,24,24],"right_children":[2,4,-1,6,8,10,12,14,16,18,-1,-1,-1,20,-1,22,24,26,-1,28,-1,30,-1,32,34,-1,-1,-1,-1,-1,-1,-1,-1,-1,-1],"split_conditions":[9.85E1,3.75E1,7.08664E-2,3.45E1,4.85E1,2.85E1,5E-1,5.5E0,5.15E1,2.65E1,-3.680077E-2,1.0584107E-1,5.145264E-3,4.5E1,8.976288E-2,5.05E1,3.5E0,5E-1,7.783051E-2,3.9E1,-8.635559E-2,4.95E1,9.196015E-2,8.55E1,8.45E1,4.6624377E-2,-1.0219231E-2,-5.474854E-3,-3.586304E-2,-3.465271E-3,1.0675049E-2,-2.373047E-2,2.1041434E-2,3.0176487E-2,-2.645482E-2],"split_indices":[1,1,0,1,1,1,2,3,1,1,0,0,0,1,0,1,3,5,0,1,0,1,0,1,1,0,0,0,0,0,0,0,0,0,0],"split_type":[0,0,0,0,0,0,0,0,0,0,0,0,0,0,0,0,0,0,0,0,0,0,0,0,0,0,0,0,0,0,0,0,0,0,0],"sum_hessian":[8E1,7.9E1,1E0,2.9E1,5E1,2.6E1,3E0,8E0,4.2E1,2.3E1,3E0,2E0,1E0,7E0,1E0,3E0,3.9E1,2.1E1,2E0,5E0,2E0,2E0,1E0,2.1E1,1.8E1,2E0,1.9E1,1E0,4E0,1E0,1E0,1.5E1,6E0,1.2E1,6E0],"tree_param":{"num_deleted":"0","num_feature":"6","num_nodes":"35","size_leaf_vector":"0"}},{"base_weights":[1.5338662E-2,1.0510636E-2,2.007904E-1,-1.0044371E-2,3.237729E-2,2.3319434E-2,-3.8619664E-2,6.472418E-2,4.4399607E-3,7.848564E-2,-6.924057E-2,4.6082497E-2,-7.8557014E-2,1.05212346E-1,-6.1587524E-2,-1.7874869E-2,1.0932541E-1,-7.1359634E-2,1.8105888E-1,-2.1230316E-1,5.9057616E-2,-1.007625E-2,2.1959686E-1,-2.1737416E-1,4.3029785E-3,1.6304652E-1,9.256999E-4,-3.9062023E-2,7.134247E-2,2.5432587E-1,-2.3783365E-2,-9.063721E-3,-1.0024166E-1,2.5062561E-2,2.6964417E-1,1.1827596E-1,-1.9846598E-2,4.0204365E-2,-1.5587997E-1,-2.4224854E-1,-4.650116E-2,1.1594645E-1,-1.08057655E-1,6.49038E-2,3.3769736E-1,-4.146118E-2,1.0643005E-1,-6.0034435E-2,1.9084167E-2,1.1549886E-1,-3.0563354E-2,-4.9957275E-2,1.4282227E-2],"categories":[],"categories_nodes":[],"categories_segments":[],"categories_sizes":[],"default_left":[1,1,0,1,1,1,1,1,1,1,1,1,1,1,0,1,1,1,1,0,1,1,0,1,1,1,1,1,1,0,1,0,0,0,0,0,0,0,0,0,0,0,0,0,0,0,0,0,0,0,0,0,0],"id":38,"left_children":[1,3,-1,5,7,9,11,13,15,17,19,21,23,25,-1,27,29,31,33,-1,35,37,-1,39,41,43,45,47,49,-1,51,-1,-1,-1,-1,-1,-1,-1,-1,-1,-1,-1,-1,-1,-1,-1,-1,-1,-1,-1,-1,-1,-1],"loss_changes":[7.0414215E-2,3.6282748E-2,0E0,4.094257E-2,3.4956366E-2,1.07558064E-1,8.142405E-2,9.85341E-2,5.3445198E-2,2.1273182E-1,1.5937549E-1,8.016752E-2,1.8497357E-1,8.42877E-2,0E0,3.870175E-2,8.325206E-2,9.886831E-3,1.0379383E-1,0E0,2.5710262E-2,5.7584766E-2,0E0,1.4237314E-2,1.5051654E-1,1.3234852E-1,3.124472E-2,2.0657156E-2,2.1529205E-2,0E0,3.702477E-3,0E0,0E0,0E0,0E0,0E0,0E0,0E0,0E0,0E0,0E0,0E0,0E0,0E0,0E0,0E0,0E0,0E0,0E0,0E0,0E0,0E0,0E0],"parents":[2147483647,0,0,1,1,3,3,4,4,5,5,6,6,7,7,8,8,9,9,10,10,11,11,12,12,13,13,15,15,16,16,17,17,18,18,20,20,21,21,23,23,24,24,25,25,26,26,27,27,28,28,30,30],"right_children":[2,4,-1,6,8,10,12,14,16,18,20,22,24,26,-1,28,30,32,34,-1,36,38,-1,40,42,44,46,48,50,-1,52,-1,-1,-1,-1,-1,-1,-1,-1,-1,-1,-1,-1,-1,-1,-1,-1,-1,-1,-1,-1,-1,-1],"split_conditions":[9.85E1,5E-1,6.0237125E-2,2.5E0,6.5E0,5.9E1,2.2E1,4.5E0,5.5E0,2.5E1,7.4E1,1.8E1,5.8E1,7E1,-1.8476257E-2,8.5E1,5.3E1,5E-1,5E-1,-6.369095E-2,9.2E1,1.6E1,6.587906E-2,4.5E0,7.8E1,6E1,3.5E0,1.5E0,4.5E0,7.629776E-2,6.7E1,-2.7191164E-3,-3.0072499E-2,7.518769E-3,8.0893256E-2,3.548279E-2,-5.9539797E-3,1.206131E-2,-4.6763994E-2,-7.2674565E-2,-1.3950349E-2,3.4783937E-2,-3.2417297E-2,1.9471142E-2,1.0130921E-1,-1.2438355E-2,3.1929016E-2,-1.8010331E-2,5.72525E-3,3.464966E-2,-9.169007E-3,-1.4987183E-2,4.2846682E-3],"split_indices":[1,2,0,3,5,1,1,3,3,1,1,1,1,1,0,1,1,4,3,0,1,1,0,5,1,1,3,4,3,0,1,0,0,0,0,0,0,0,0,0,0,0,0,0,0,0,0,0,0,0,0,0,0],"split_type":[0,0,0,0,0,0,0,0,0,0,0,0,0,0,0,0,0,0,0,0,0,0,0,0,0,0,0,0,0,0,0,0,0,0,0,0,0,0,0,0,0,0,0,0,0,0,0,0,0,0,0,0,0],"sum_hessian":[8E1,7.9E1,1E0,4.1E1,3.8E1,1.9E1,2.2E1,1.7E1,2.1E1,1.2E1,7E0,7E0,1.5E1,1.3E1,4E0,1.8E1,3E0,5E0,7E0,3E0,4E0,6E0,1E0,5E0,1E1,8E0,5E0,1.5E1,3E0,1E0,2E0,2E0,3E0,3E0,4E0,2E0,2E0,5E0,1E0,4E0,1E0,5E0,5E0,6E0,2E0,4E0,1E0,1.1E1,4E0,2E0,1E0,1E0,1E0],"tree_param":{"num_deleted":"0","num_feature":"6","num_nodes":"53","size_leaf_vector":"0"}},{"base_weights":[1.3565593E-2,8.451401E-3,1.4371745E-1,3.4312345E-2,-7.234192E-3,4.4906616E-2,1.7066956E-1,1.1887621E-2,1.7710114E-1,-7.6768495E-2,9.901837E-3,-1.91599E-2,6.658439E-2,2.2832234E-1,1.171875E-2,-1.3333808E-1,2.161789E-1,1.7290242E-1,-2.8905624E-3,1.5202284E-2,-7.532937E-2,2.4723308E-1,-9.481907E-3,-6.2713623E-3,-1.484375E-1,3.9245605E-2,2.2010803E-1,-4.715644E-2,1.0054065E-2,-1.7353319E-2,1.8665695E-1,1.2885284E-1,-1.3083522E-1,-3.5527367E-2,8.641815E-2,-7.7610016E-2,-1.7541198E-1,-7.84111E-2,1.0144043E-1,3.6956787E-2,-5.9814453E-2],"categories":[],"categories_nodes":[],"categories_segments":[],"categories_sizes":[],"default_left":[1,1,1,1,1,0,0,1,1,1,1,1,1,0,0,1,0,1,1,1,1,0,1,0,1,0,0,1,1,0,0,0,0,0,0,0,0,0,0,0,0],"id":39,"left_children":[1,3,5,7,9,-1,-1,11,13,15,17,19,21,-1,-1,23,-1,25,27,29,31,-1,33,-1,35,-1,-1,37,39,-1,-1,-1,-1,-1,-1,-1,-1,-1,-1,-1,-1],"loss_changes":[5.2700732E-2,3.2294117E-2,3.2528862E-4,9.395467E-2,6.033724E-2,0E0,0E0,4.7127128E-2,3.120868E-2,1.94544E-1,8.59917E-2,3.5887085E-2,1.39757E-1,0E0,0E0,1.6336799E-2,0E0,1.0289781E-2,2.2821322E-2,7.0220836E-2,9.619162E-2,0E0,2.3052298E-2,0E0,1.6705543E-3,0E0,0E0,4.975316E-2,6.0479805E-2,0E0,0E0,0E0,0E0,0E0,0E0,0E0,0E0,0E0,0E0,0E0,0E0],"parents":[2147483647,0,0,1,1,2,2,3,3,4,4,7,7,8,8,9,9,10,10,11,11,12,12,15,15,17,17,18,18,19,19,20,20,22,22,24,24,27,27,28,28],"right_children":[2,4,6,8,10,-1,-1,12,14,16,18,20,22,-1,-1,24,-1,26,28,30,32,-1,34,-1,36,-1,-1,38,40,-1,-1,-1,-1,-1,-1,-1,-1,-1,-1,-1,-1],"split_conditions":[9.75E1,3.75E1,9.85E1,3.45E1,4.95E1,1.3471985E-2,5.120087E-2,5.5E0,5E-1,5.5E0,5.15E1,2E1,6.5E0,6.8496704E-2,3.5156251E-3,3.9E1,6.485367E-2,5.05E1,1.5E0,1.8E1,5E-1,7.416993E-2,4.5E0,-1.8814087E-3,5E-1,1.1773682E-2,6.603241E-2,9E1,8.65E1,-5.205996E-3,5.599709E-2,3.8655855E-2,-3.9250568E-2,-1.065821E-2,2.5925446E-2,-2.3283005E-2,-5.2623596E-2,-2.3523333E-2,3.043213E-2,1.1087037E-2,-1.7944336E-2],"split_indices":[1,1,1,1,1,0,0,5,2,3,1,1,5,0,0,1,0,1,5,1,3,0,3,0,4,0,0,1,1,0,0,0,0,0,0,0,0,0,0,0,0],"split_type":[0,0,0,0,0,0,0,0,0,0,0,0,0,0,0,0,0,0,0,0,0,0,0,0,0,0,0,0,0,0,0,0,0,0,0,0,0,0,0,0,0],"sum_hessian":[8E1,7.8E1,2E0,2.9E1,4.9E1,1E0,1E0,2.6E1,3E0,9E0,4E1,1.7E1,9E0,2E0,1E0,8E0,1E0,2E0,3.8E1,1.1E1,6E0,2E0,7E0,1E0,7E0,1E0,1E0,8E0,3E1,1E1,1E0,1E0,5E0,6E0,1E0,3E0,4E0,7E0,1E0,2.2E1,8E0],"tree_param":{"num_deleted":"0","num_feature":"6","num_nodes":"41","size_leaf_vector":"0"}},{"base_weights":[1.371167E-2,7.140963E-3,9.465536E-2,1.4177682E-2,-5.444336E-2,1.4126587E-1,3.603363E-2,6.4230124E-3,6.516181E-2,5.355835E-2,-9.937032E-2,8.361816E-3,4.2470295E-2,1.5643002E-2,-9.9969484E-2,1.9792683E-1,-1.0463169E-3,-5.8898926E-3,8.622742E-2,-1.3343048E-1,-2.0833334E-2,4.4425963E-3,2.1576945E-1,-1.2826538E-1,6.6070557E-3,-5.1330566E-2,4.949951E-2,1.5944313E-2,-1.1376343E-1,-1.4499919E-1,-3.9031982E-2,-8.105469E-2,-1.4404297E-2,9.145101E-2,-3.817749E-2],"categories":[],"categories_nodes":[],"categories_segments":[],"categories_sizes":[],"default_left":[1,1,1,1,1,0,1,1,1,1,1,0,0,1,1,0,1,0,0,0,0,1,0,1,0,1,1,0,0,0,0,0,0,0,0],"id":40,"left_children":[1,3,5,7,9,-1,11,13,15,17,19,-1,-1,21,23,-1,25,-1,-1,-1,-1,27,-1,29,-1,31,33,-1,-1,-1,-1,-1,-1,-1,-1],"loss_changes":[4.240451E-2,3.3706598E-2,1.1304013E-2,2.6861655E-2,4.4139616E-2,0E0,3.5732798E-4,6.1401032E-2,7.931821E-2,6.3342256E-3,1.3270095E-2,0E0,0E0,1.268068E-1,1.5925847E-2,0E0,2.0332452E-2,0E0,0E0,0E0,0E0,7.6590344E-2,0E0,3.132522E-4,0E0,3.2228678E-3,1.8204095E-2,0E0,0E0,0E0,0E0,0E0,0E0,0E0,0E0],"parents":[2147483647,0,0,1,1,2,2,3,3,4,4,6,6,7,7,8,8,9,9,10,10,13,13,14,14,16,16,21,21,23,23,25,25,26,26],"right_children":[2,4,6,8,10,-1,12,14,16,18,20,-1,-1,22,24,-1,26,-1,-1,-1,-1,28,-1,30,-1,32,34,-1,-1,-1,-1,-1,-1,-1,-1],"split_conditions":[9.45E1,8.65E1,3E0,7.45E1,2E0,4.2379763E-2,5E-1,6.85E1,5E-1,9E1,9.25E1,2.508545E-3,1.2741089E-2,6.65E1,7.3E1,5.9378054E-2,1.5E0,-1.7669678E-3,2.5868226E-2,-4.0029146E-2,-6.2500006E-3,6.25E1,6.473084E-2,7.15E1,1.9821168E-3,5E-1,8.35E1,4.783294E-3,-3.412903E-2,-4.349976E-2,-1.1709595E-2,-2.4316408E-2,-4.3212892E-3,2.7435305E-2,-1.1453248E-2],"split_indices":[1,1,5,1,5,0,2,1,4,1,1,0,0,1,1,0,4,0,0,0,0,1,0,1,0,2,1,0,0,0,0,0,0,0,0],"split_type":[0,0,0,0,0,0,0,0,0,0,0,0,0,0,0,0,0,0,0,0,0,0,0,0,0,0,0,0,0,0,0,0,0,0,0],"sum_hessian":[8E1,7.5E1,5E0,6.8E1,7E0,2E0,3E0,6E1,8E0,2E0,5E0,1E0,2E0,5.6E1,4E0,2E0,6E0,1E0,1E0,3E0,2E0,5.4E1,2E0,3E0,1E0,3E0,3E0,5E1,4E0,2E0,1E0,1E0,2E0,2E0,1E0],"tree_param":{"num_deleted":"0","num_feature":"6","num_nodes":"35","size_leaf_vector":"0"}},{"base_weights":[1.0392601E-2,5.0872504E-3,7.586161E-2,2.6451237E-2,-8.657577E-3,1.1300659E-1,2.9037476E-2,8.887538E-3,1.383934E-1,-5.93277E-2,4.904496E-3,7.1105957E-3,3.397624E-2,-2.193006E-2,4.3762647E-2,1.7947388E-1,7.575989E-3,-1.0622321E-1,1.8136597E-1,1.4376831E-1,-6.8037244E-3,1.0713959E-1,-3.8802147E-2,1.0670376E-1,-8.913517E-3,-5.5341084E-2,-1.559906E-1,3.0960083E-2,1.8469238E-1,-5.946132E-2,5.709839E-3,6.6251755E-3,-1.21896364E-1,1.4106274E-2,1.9459915E-1,-5.6918144E-2,3.127289E-2,-7.006226E-2,9.132385E-3,-1.806488E-1,-4.1007996E-2,6.9732666E-3,-7.169596E-2,7.1740724E-2,-7.208017E-3],"categories":[],"categories_nodes":[],"categories_segments":[],"categories_sizes":[],"default_left":[1,1,1,1,1,0,1,1,1,1,1,0,0,1,1,0,0,1,0,1,1,0,1,1,1,1,1,0,0,1,1,0,0,0,0,0,0,0,0,0,0,0,0,0,0],"id":41,"left_children":[1,3,5,7,9,-1,11,13,15,17,19,-1,-1,21,23,-1,-1,25,-1,27,29,-1,31,33,35,37,39,-1,-1,41,43,-1,-1,-1,-1,-1,-1,-1,-1,-1,-1,-1,-1,-1,-1],"loss_changes":[2.7748298E-2,2.2545973E-2,7.1542636E-3,5.775358E-2,3.2588992E-2,0E0,1.9157515E-4,2.9978426E-2,2.0136476E-2,1.321398E-1,6.27604E-2,0E0,0E0,3.6822364E-2,4.4052556E-2,0E0,0E0,1.4157742E-2,0E0,8.131627E-3,2.4061145E-2,0E0,5.365405E-2,4.6088286E-2,1.7213061E-2,6.334586E-3,3.9330125E-3,0E0,0E0,6.1895773E-3,2.610643E-2,0E0,0E0,0E0,0E0,0E0,0E0,0E0,0E0,0E0,0E0,0E0,0E0,0E0,0E0],"parents":[2147483647,0,0,1,1,2,2,3,3,4,4,6,6,7,7,8,8,9,9,10,10,13,13,14,14,17,17,19,19,20,20,22,22,23,23,24,24,25,25,26,26,29,29,30,30],"right_children":[2,4,6,8,10,-1,12,14,16,18,20,-1,-1,22,24,-1,-1,26,-1,28,30,-1,32,34,36,38,40,-1,-1,42,44,-1,-1,-1,-1,-1,-1,-1,-1,-1,-1,-1,-1,-1,-1],"split_conditions":[9.45E1,3.75E1,3E0,3.45E1,4.95E1,3.390198E-2,5E-1,4.5E0,5E-1,5.5E0,5.15E1,2.1331788E-3,1.0192872E-2,5E-1,6.5E0,5.3842165E-2,2.2727968E-3,4.5E1,5.440979E-2,5.05E1,5.85E1,3.214188E-2,2E1,5E-1,1.8E1,1.5E0,4.85E1,9.288025E-3,5.5407718E-2,5E-1,6.25E1,1.9875527E-3,-3.656891E-2,4.2318823E-3,5.8379747E-2,-1.7075444E-2,9.381867E-3,-2.1018678E-2,2.7397156E-3,-5.4194644E-2,-1.23024E-2,2.09198E-3,-2.1508789E-2,2.1522218E-2,-2.1624053E-3],"split_indices":[1,1,5,1,1,0,2,5,2,3,1,0,0,3,5,0,0,1,0,1,1,0,1,2,1,4,1,0,0,3,1,0,0,0,0,0,0,0,0,0,0,0,0,0,0],"split_type":[0,0,0,0,0,0,0,0,0,0,0,0,0,0,0,0,0,0,0,0,0,0,0,0,0,0,0,0,0,0,0,0,0,0,0,0,0,0,0,0,0,0,0,0,0],"sum_hessian":[8E1,7.5E1,5E0,2.9E1,4.6E1,2E0,3E0,2.6E1,3E0,9E0,3.7E1,1E0,2E0,1.4E1,1.2E1,2E0,1E0,8E0,1E0,2E0,3.5E1,1E0,1.3E1,5E0,7E0,5E0,3E0,1E0,1E0,6E0,2.9E1,9E0,4E0,3E0,2E0,3E0,4E0,4E0,1E0,2E0,1E0,1E0,5E0,4E0,2.5E1],"tree_param":{"num_deleted":"0","num_feature":"6","num_nodes":"45","size_leaf_vector":"0"}},{"base_weights":[9.610423E-3,6.47091E-3,8.908081E-2,-6.7976E-2,9.287401E-3,2.670288E-2,1.06918335E-1,3.0999184E-2,-3.0569457E-3,1.6974945E-2,1.1090088E-1,-4.4569395E-2,7.142602E-3,5.4492474E-2,-6.4256456E-4,1.4357503E-1,6.439209E-3,-8.377923E-2,1.5415955E-1,1.2220255E-1,-1.8913073E-3,-6.4697266E-3,1.17072105E-1,2.355194E-2,-6.8258666E-2,-4.179128E-2,-1.2581635E-1,2.6321411E-2,1.5698242E-1,-4.4387817E-2,1.2337239E-2],"categories":[],"categories_nodes":[],"categories_segments":[],"categories_sizes":[],"default_left":[1,1,1,0,1,0,0,1,1,1,1,1,1,1,1,0,0,1,0,1,1,0,0,0,0,0,0,0,0,0,0],"id":42,"left_children":[1,3,5,-1,7,-1,-1,9,11,13,15,17,19,21,23,-1,-1,25,-1,27,29,-1,-1,-1,-1,-1,-1,-1,-1,-1,-1],"loss_changes":[1.9632932E-2,1.7195966E-2,4.8297644E-4,0E0,2.073213E-2,0E0,0E0,2.9493159E-2,2.1488752E-2,1.655915E-2,1.2728274E-2,9.083665E-2,4.2848215E-2,3.127736E-2,3.1054512E-2,0E0,0E0,1.0627441E-2,0E0,5.8721974E-3,2.4129502E-2,0E0,0E0,0E0,0E0,0E0,0E0,0E0,0E0,0E0,0E0],"parents":[2147483647,0,0,1,1,2,2,4,4,7,7,8,8,9,9,10,10,11,11,12,12,13,13,14,14,17,17,19,19,20,20],"right_children":[2,4,6,-1,8,-1,-1,10,12,14,16,18,20,22,24,-1,-1,26,-1,28,30,-1,-1,-1,-1,-1,-1,-1,-1,-1,-1],"split_conditions":[9.75E1,2.5E0,9.85E1,-2.03928E-2,3.75E1,8.010864E-3,3.2075502E-2,3.45E1,4.95E1,1.2E1,5E-1,5.5E0,5.15E1,7.5E0,4.5E0,4.307251E-2,1.9317628E-3,4.5E1,4.6247866E-2,5.05E1,6.15E1,-1.940918E-3,3.5121635E-2,7.0655826E-3,-2.04776E-2,-1.2537384E-2,-3.7744906E-2,7.896423E-3,4.709473E-2,-1.3316345E-2,3.701172E-3],"split_indices":[1,1,1,0,1,0,0,1,1,1,2,3,1,1,3,0,0,1,0,1,1,0,0,0,0,0,0,0,0,0,0],"split_type":[0,0,0,0,0,0,0,0,0,0,0,0,0,0,0,0,0,0,0,0,0,0,0,0,0,0,0,0,0,0,0],"sum_hessian":[8E1,7.8E1,2E0,2E0,7.6E1,1E0,1E0,2.7E1,4.9E1,2.4E1,3E0,9E0,4E1,7E0,1.7E1,2E0,1E0,8E0,1E0,2E0,3.8E1,4E0,3E0,1.3E1,4E0,5E0,3E0,1E0,1E0,9E0,2.9E1],"tree_param":{"num_deleted":"0","num_feature":"6","num_nodes":"31","size_leaf_vector":"0"}},{"base_weights":[8.283085E-3,-4.438378E-3,2.2096928E-2,-1.4631397E-2,6.0857136E-2,4.9875576E-2,-1.6354647E-3,-2.3343985E-3,-9.532471E-2,-5.1167808E-3,9.512329E-2,8.0756664E-2,-1.0188512E-2,-3.1823054E-2,1.7887661E-2,-1.4210492E-2,1.2512207E-1,-2.5990805E-2,-1.3288371E-1,-1.1871338E-2,4.196167E-3,1.08937584E-1,2.684021E-2,2.7703285E-2,2.3068237E-1,-3.092041E-2,2.7760824E-2,-7.0007324E-2,3.340912E-2,-1.0587419E-2,4.0567398E-2,-3.4553846E-3,-1.1702474E-1,1.499176E-1,3.7765503E-2,-3.3218384E-2,-5.7678223E-3,-4.92568E-2,6.7722864E-2,-5.000305E-2,2.2705078E-2,7.044983E-2,-2.8808594E-2,-8.267212E-2,-3.3416748E-3,7.661438E-2,-6.5307617E-3,3.4296673E-2,-3.540039E-2,9.534836E-2,-1.137085E-2,-1.13270525E-2,1.124115E-1,-1.5048027E-2,-5.564372E-2,1.4161682E-1,9.841919E-3,-5.6365967E-2,-1.5457153E-2,4.852295E-3,-1.46484375E-2,5.176544E-3,4.6268463E-2,-4.6985626E-2,5.470276E-3,1.3103485E-1,3.9774578E-2,1.3038635E-2,-5.4504395E-2],"categories":[],"categories_nodes":[],"categories_segments":[],"categories_sizes":[],"default_left":[1,1,1,1,1,1,1,1,1,1,1,1,1,1,1,1,1,1,0,0,0,0,0,1,0,1,1,1,1,1,1,1,0,0,0,0,0,1,1,1,0,0,0,0,0,0,1,1,1,1,1,0,0,0,0,0,0,0,0,0,0,0,0,0,0,0,0,0,0],"id":43,"left_children":[1,3,5,7,9,11,13,15,17,19,21,23,25,27,29,31,33,35,-1,-1,-1,-1,-1,37,-1,39,41,43,45,47,49,51,-1,-1,-1,-1,-1,53,55,57,-1,-1,-1,-1,-1,-1,59,61,63,65,67,-1,-1,-1,-1,-1,-1,-1,-1,-1,-1,-1,-1,-1,-1,-1,-1,-1,-1],"loss_changes":[1.4332389E-2,2.9509438E-2,2.5792468E-2,3.7484325E-2,1.40507575E-2,3.4209993E-2,1.3535072E-2,5.3243335E-2,9.566806E-3,2.3852862E-4,8.492209E-4,8.905812E-2,6.365708E-3,2.4756473E-2,9.470807E-3,3.498054E-2,8.3644316E-4,2.4689198E-4,0E0,0E0,0E0,0E0,0E0,3.4134913E-2,0E0,6.2519033E-3,9.274237E-3,4.789576E-3,7.402802E-3,9.010069E-3,2.3846006E-2,2.8635262E-2,0E0,0E0,0E0,0E0,0E0,3.6626123E-5,2.8545585E-2,7.993542E-6,0E0,0E0,0E0,0E0,0E0,0E0,3.4829043E-4,8.063498E-4,2.6245061E-3,2.7210787E-3,5.9750006E-3,0E0,0E0,0E0,0E0,0E0,0E0,0E0,0E0,0E0,0E0,0E0,0E0,0E0,0E0,0E0,0E0,0E0,0E0],"parents":[2147483647,0,0,1,1,2,2,3,3,4,4,5,5,6,6,7,7,8,8,9,9,10,10,11,11,12,12,13,13,14,14,15,15,16,16,17,17,23,23,25,25,26,26,27,27,28,28,29,29,30,30,31,31,37,37,38,38,39,39,46,46,47,47,48,48,49,49,50,50],"right_children":[2,4,6,8,10,12,14,16,18,20,22,24,26,28,30,32,34,36,-1,-1,-1,-1,-1,38,-1,40,42,44,46,48,50,52,-1,-1,-1,-1,-1,54,56,58,-1,-1,-1,-1,-1,-1,60,62,64,66,68,-1,-1,-1,-1,-1,-1,-1,-1,-1,-1,-1,-1,-1,-1,-1,-1,-1,-1],"split_conditions":[5E-1,9E1,6.5E0,8E1,1.5E0,7E1,7.5E0,7.3E1,4.5E0,9.5E1,4.5E0,6E1,3.5E0,4.5E0,4.3E1,6.8E1,7.7E1,8.7E1,-3.9865114E-2,-3.5614015E-3,1.2588501E-3,3.2681275E-2,8.052063E-3,1.5E0,6.920472E-2,9.5E1,8.5E1,7.4E1,4.9E1,5E-1,5E-1,6.6E1,-3.5107423E-2,4.497528E-2,1.1329651E-2,-9.965516E-3,-1.7303467E-3,2.5E1,3E1,4.5E0,6.811524E-3,2.113495E-2,-8.6425785E-3,-2.4801636E-2,-1.0025025E-3,2.2984315E-2,8.4E1,1.3E1,1.5E0,5.6E1,5E0,-3.398116E-3,3.372345E-2,-4.5144083E-3,-1.6693117E-2,4.2485047E-2,2.952576E-3,-1.6909791E-2,-4.6371464E-3,1.4556885E-3,-4.3945312E-3,1.5529633E-3,1.388054E-2,-1.4095688E-2,1.6410828E-3,3.9310455E-2,1.1932374E-2,3.9115907E-3,-1.635132E-2],"split_indices":[2,1,5,1,3,1,5,1,3,1,3,1,3,3,1,1,1,1,0,0,0,0,0,3,0,1,1,1,1,3,4,1,0,0,0,0,0,1,1,5,0,0,0,0,0,0,1,1,4,1,3,0,0,0,0,0,0,0,0,0,0,0,0,0,0,0,0,0,0],"split_type":[0,0,0,0,0,0,0,0,0,0,0,0,0,0,0,0,0,0,0,0,0,0,0,0,0,0,0,0,0,0,0,0,0,0,0,0,0,0,0,0,0,0,0,0,0,0,0,0,0,0,0,0,0,0,0,0,0,0,0,0,0,0,0,0,0,0,0,0,0],"sum_hessian":[8E1,4.2E1,3.8E1,3.7E1,5E0,1.7E1,2.1E1,3.3E1,4E0,2E0,3E0,1.1E1,6E0,8E0,1.3E1,3.1E1,2E0,2E0,2E0,1E0,1E0,2E0,1E0,9E0,2E0,4E0,2E0,5E0,3E0,6E0,7E0,2.9E1,2E0,1E0,1E0,1E0,1E0,3E0,6E0,3E0,1E0,1E0,1E0,4E0,1E0,1E0,2E0,2E0,4E0,3E0,4E0,2.8E1,1E0,1E0,2E0,2E0,4E0,2E0,1E0,1E0,1E0,1E0,1E0,3E0,1E0,1E0,2E0,3E0,1E0],"tree_param":{"num_deleted":"0","num_feature":"6","num_nodes":"69","size_leaf_vector":"0"}},{"base_weights":[7.841722E-3,-5.174319E-2,1.0005178E-2,-6.4824104E-2,-1.279068E-2,2.3851724E-2,1.9354727E-3,4.3634414E-3,6.0443114E-2,2.3888906E-2,-1.695088E-2,-3.481903E-2,3.9587196E-2,1.0867564E-1,-9.524536E-3,-6.250763E-2,3.0362999E-2,-5.171407E-2,2.1506174E-2,-5.9227534E-2,1.6600609E-2,1.7156474E-1,-8.803898E-3,1.3618469E-1,-1.4434814E-2,-4.6722412E-2,1.1455536E-2,6.9612294E-2,4.7892253E-3,3.3618927E-2,-7.58489E-2,1.372884E-1,-9.231567E-3,-8.487701E-3,-7.7825926E-2,-4.085541E-3,3.932953E-2,-8.359985E-2,6.775284E-2,1.5791321E-1,-8.5703534E-4,-8.480225E-2,4.507724E-2,-2.9429117E-2,1.1138153E-1,-1.2322998E-1,-4.636298E-2,2.1793365E-2,-5.7025146E-2],"categories":[],"categories_nodes":[],"categories_segments":[],"categories_sizes":[],"default_left":[1,1,1,0,0,1,1,1,1,1,1,1,1,1,1,0,1,1,1,1,1,0,1,0,0,0,0,1,1,1,1,0,1,0,0,0,0,0,0,0,0,0,0,0,0,0,0,0,0],"id":44,"left_children":[1,3,5,-1,-1,7,9,11,13,15,17,19,21,23,25,-1,27,29,31,33,35,-1,37,-1,-1,-1,-1,39,41,43,45,-1,47,-1,-1,-1,-1,-1,-1,-1,-1,-1,-1,-1,-1,-1,-1,-1,-1],"loss_changes":[1.0959355E-2,6.994596E-4,8.7811025E-3,0E0,0E0,2.0416258E-2,2.1550572E-2,2.8981462E-2,3.478225E-2,1.5322062E-2,3.854509E-2,1.3533979E-2,7.176235E-2,2.2285707E-2,4.437301E-3,0E0,2.275292E-2,3.3442415E-2,5.1091768E-2,5.945191E-3,2.0413776E-3,0E0,5.7199333E-2,0E0,0E0,0E0,0E0,5.6137893E-2,5.796459E-2,2.288898E-2,1.1051588E-2,0E0,1.9036282E-2,0E0,0E0,0E0,0E0,0E0,0E0,0E0,0E0,0E0,0E0,0E0,0E0,0E0,0E0,0E0,0E0],"parents":[2147483647,0,0,1,1,2,2,5,5,6,6,7,7,8,8,9,9,10,10,11,11,12,12,13,13,14,14,16,16,17,17,18,18,19,19,20,20,22,22,27,27,28,28,29,29,30,30,32,32],"right_children":[2,4,6,-1,-1,8,10,12,14,16,18,20,22,24,26,-1,28,30,32,34,36,-1,38,-1,-1,-1,-1,40,42,44,46,-1,48,-1,-1,-1,-1,-1,-1,-1,-1,-1,-1,-1,-1,-1,-1,-1,-1],"split_conditions":[2.5E0,1.5E0,3.9E1,-1.9447232E-2,-3.837204E-3,2.65E1,3.5E0,2.5E0,2.5E0,4.15E1,6.65E1,7.5E0,1.5E0,6.5E0,3.05E1,-1.875229E-2,6.35E1,4.65E1,7.1E1,5E-1,1.8E1,5.1469427E-2,4.5E0,4.0855408E-2,-4.3304446E-3,-1.4016724E-2,3.4366609E-3,1.5E0,7.35E1,4.45E1,5E-1,4.1186523E-2,4.5E0,-2.5463104E-3,-2.3347778E-2,-1.2256623E-3,1.179886E-2,-2.5079956E-2,2.0325853E-2,4.7373965E-2,-2.571106E-4,-2.5440676E-2,1.3523172E-2,-8.828736E-3,3.341446E-2,-3.6968995E-2,-1.3908895E-2,6.5380097E-3,-1.7107544E-2],"split_indices":[1,1,1,0,0,1,5,3,3,1,1,5,5,5,1,0,1,1,1,4,1,0,5,0,0,0,0,3,1,1,2,0,3,0,0,0,0,0,0,0,0,0,0,0,0,0,0,0,0],"split_type":[0,0,0,0,0,0,0,0,0,0,0,0,0,0,0,0,0,0,0,0,0,0,0,0,0,0,0,0,0,0,0,0,0,0,0,0,0,0,0,0,0,0,0,0,0,0,0,0,0],"sum_hessian":[8E1,2E0,7.8E1,1E0,1E0,2.8E1,5E1,1.9E1,9E0,2.3E1,2.7E1,9E0,1E1,5E0,4E0,1E0,2.2E1,1.4E1,1.3E1,6E0,3E0,2E0,8E0,4E0,1E0,1E0,3E0,8E0,1.4E1,3E0,1.1E1,2E0,1.1E1,2E0,4E0,2E0,1E0,4E0,4E0,3E0,5E0,4E0,1E1,2E0,1E0,3E0,8E0,7E0,4E0],"tree_param":{"num_deleted":"0","num_feature":"6","num_nodes":"49","size_leaf_vector":"0"}},{"base_weights":[6.168648E-3,-1.8929413E-3,2.3294816E-2,-1.7102242E-2,1.50763905E-2,3.0039165E-2,-2.1308899E-2,-5.9619904E-2,-6.2139127E-3,8.195305E-2,3.3020973E-3,1.6085906E-2,5.9634347E-2,-3.9367676E-2,-2.166748E-3,-1.0509237E-1,-1.061058E-2,1.8912435E-2,-4.5794677E-2,-1.2268066E-2,1.1744944E-1,-5.820014E-3,6.9096886E-2,2.6865445E-2,-1.5158081E-2,8.626318E-2,1.8096924E-2,1.2680054E-2,-1.5930176E-2,-1.4350891E-2,3.0517578E-4,-6.358274E-2,3.523908E-2,6.309763E-2,-8.090496E-2,3.3428192E-2,1.4274597E-1,4.8918407E-2,-1.3739777E-2,8.972168E-3,9.467316E-2,-1.2365341E-2,3.9871216E-2,5.2948E-3,-3.0558268E-2,5.496216E-2,-1.2512207E-2,1.3725281E-1,6.7990622E-3,6.1302185E-3,8.8516235E-2,-1.1387743E-1,7.495117E-2,-1.0871887E-2,8.42495E-2,-5.393219E-2,-3.474516E-3,-6.410726E-2,7.143021E-2,9.6473694E-2,1.8310547E-3,-2.5772095E-2,7.003784E-3],"categories":[],"categories_nodes":[],"categories_segments":[],"categories_sizes":[],"default_left":[1,1,1,1,1,1,1,1,1,1,1,1,1,0,1,0,1,1,1,0,1,1,1,1,1,0,1,0,0,0,0,0,1,1,1,0,0,1,1,0,0,1,1,0,0,0,1,0,0,0,0,0,0,0,0,0,0,0,0,0,0,0,0],"id":45,"left_children":[1,3,5,7,9,11,13,15,17,19,21,23,25,-1,27,-1,29,31,33,-1,35,37,39,41,43,-1,45,-1,-1,-1,-1,-1,47,49,51,-1,-1,53,55,-1,-1,57,59,-1,-1,-1,61,-1,-1,-1,-1,-1,-1,-1,-1,-1,-1,-1,-1,-1,-1,-1,-1],"loss_changes":[1.1227291E-2,1.4710972E-2,8.4615005E-3,1.3517915E-2,2.0989867E-2,8.538561E-3,1.2974355E-3,1.2256358E-2,2.572909E-2,1.4818916E-2,1.4806642E-2,6.132757E-3,6.181553E-3,0E0,8.1502413E-4,0E0,1.6769284E-4,2.3790512E-2,4.333731E-2,0E0,1.604598E-3,1.0209464E-2,3.763875E-3,7.125967E-3,1.7366909E-3,0E0,5.201349E-3,0E0,0E0,0E0,0E0,0E0,3.9684623E-2,3.8014716E-3,4.9646944E-2,0E0,0E0,7.25332E-3,8.064323E-3,0E0,0E0,2.1922164E-2,2.1355027E-2,0E0,0E0,0E0,9.5684174E-4,0E0,0E0,0E0,0E0,0E0,0E0,0E0,0E0,0E0,0E0,0E0,0E0,0E0,0E0,0E0,0E0],"parents":[2147483647,0,0,1,1,2,2,3,3,4,4,5,5,6,6,7,7,8,8,9,9,10,10,11,11,12,12,14,14,16,16,17,17,18,18,20,20,21,21,22,22,23,23,24,24,26,26,32,32,33,33,34,34,37,37,38,38,41,41,42,42,46,46],"right_children":[2,4,6,8,10,12,14,16,18,20,22,24,26,-1,28,-1,30,32,34,-1,36,38,40,42,44,-1,46,-1,-1,